/* Species # 003         : (size= 006) (AvfFit= 10.206) (Age= 98.000)  */
/*-------------------------------------------------------------------*/
/* Organism # 000 Fitness:  0.000 Error:  0.000                      */
genomestart  0
trait 1 0.35810747387912667 0.0 0.0 0.0 0.0 0.0 0.0 0.0 
trait 2 0.2 0.0 0.0 0.0 0.04788352237316654 0.0 0.0 0.02058122326742594 
trait 3 0.5650617362297436 0.2781608327548373 0.0 0.0 0.0 0.0 0.0 0.0 
node 1 3 1 1
node 2 2 1 1
node 3 1 1 3
node 4 1 0 2
node 10 3 0 0
node 155 3 0 0
gene  2 1 4 8.381289813806506 0 1.0 8.381289813806506 1
gene  2 2 4 -8.660981369797499 0 2.0 -8.660981369797499 1
gene  1 3 4 -1.4228763960773825 0 3.0 -1.4228763960773825 1
gene  2 1 10 -7.647405660657434 0 16.0 -7.647405660657434 1
gene  1 10 4 30.411821137505523 0 17.0 30.411821137505523 1
gene  3 2 10 6.210197295725434 0 27.0 6.210197295725434 1
gene  1 3 10 -4.741731829621775 0 36.0 -4.741731829621775 1
gene  3 2 155 1.6637008767569874 0 715.0 1.6637008767569874 1
gene  2 155 4 -2.3982458753300744 0 716.0 -2.3982458753300744 1
gene  2 10 155 0.09268353904926774 0 1117.0 0.09268353904926774 1
gene  3 3 155 0.5787928783057621 0 1170.0 0.5787928783057621 1
gene  3 1 155 -0.30441872588505364 0 1508.0 -0.30441872588505364 1
genomeend 0
/* Organism # 001 Fitness:  0.000 Error:  0.000                      */
genomestart  1
trait 1 0.35810747387912667 0.0 0.0 0.0 0.0 0.0 0.0 0.0 
trait 2 0.2 0.0 0.0 0.0 0.04788352237316654 0.0 0.0 0.02058122326742594 
trait 3 0.5650617362297436 0.2781608327548373 0.0 0.0 0.0 0.0 0.0 0.0 
node 1 3 1 1
node 2 2 1 1
node 3 1 1 3
node 4 1 0 2
node 10 3 0 0
node 155 3 0 0
gene  2 1 4 9.403989426996105 0 1.0 9.403989426996105 1
gene  2 2 4 0.1562349859191664 0 2.0 0.1562349859191664 1
gene  1 3 4 -2.033583154233674 0 3.0 -2.033583154233674 1
gene  2 1 10 -8.214509468205542 0 16.0 -8.214509468205542 1
gene  1 10 4 30.643633236433132 0 17.0 30.643633236433132 1
gene  3 2 10 6.210197295725434 0 27.0 6.210197295725434 1
gene  1 3 10 1.4350985595025267 0 36.0 1.4350985595025267 1
gene  3 2 155 3.6091827508593592 0 715.0 3.6091827508593592 1
gene  2 155 4 -4.0077958065500905 0 716.0 -4.0077958065500905 1
gene  2 10 155 -0.7732310091388648 0 1117.0 -0.7732310091388648 1
gene  3 3 155 3.0366263764165646 0 1170.0 3.0366263764165646 1
gene  3 1 155 1.2478382233079996 0 1508.0 1.2478382233079996 1
genomeend 1
/* Organism # 002 Fitness:  0.000 Error:  0.000                      */
genomestart  2
trait 1 0.35810747387912667 0.0 0.0 0.0 0.0 0.0 0.0 0.0 
trait 2 0.2 0.0 0.0 0.0 0.04788352237316654 0.0 0.0 0.02058122326742594 
trait 3 0.5650617362297436 0.2781608327548373 0.0 0.0 0.0 0.0 0.0 0.0 
node 1 3 1 1
node 2 2 1 1
node 3 1 1 3
node 4 1 0 2
node 10 3 0 0
node 155 3 0 0
gene  2 1 4 6.560046296524229 0 1.0 6.560046296524229 1
gene  2 2 4 -8.828038408399827 0 2.0 -8.828038408399827 1
gene  1 3 4 -0.6032624457775824 0 3.0 -0.6032624457775824 1
gene  2 1 10 -7.0343169558301835 0 16.0 -7.0343169558301835 1
gene  1 10 4 29.851840185446715 0 17.0 29.851840185446715 1
gene  3 2 10 0.8989628849833184 0 27.0 0.8989628849833184 1
gene  1 3 10 -5.9039918479137405 0 36.0 -5.9039918479137405 1
gene  3 2 155 -0.2552335777119641 0 715.0 -0.2552335777119641 1
gene  2 155 4 -2.3982458753300744 0 716.0 -2.3982458753300744 1
gene  2 10 155 2.562859447594998 0 1117.0 2.562859447594998 1
gene  3 3 155 -1.0706500216885397 0 1170.0 -1.0706500216885397 1
gene  3 1 155 -1.2988167601008638 0 1508.0 -1.2988167601008638 1
genomeend 2
/* Organism # 003 Fitness:  0.000 Error:  0.000                      */
genomestart  3
trait 1 0.35810747387912667 0.0 0.0 0.0 0.0 0.0 0.0 0.0 
trait 2 0.2 0.0 0.0 0.0 0.04788352237316654 0.0 0.0 0.02058122326742594 
trait 3 0.5650617362297436 0.2781608327548373 0.0 0.0 0.0 0.0 0.0 0.0 
node 1 3 1 1
node 2 2 1 1
node 3 1 1 3
node 4 1 0 2
node 10 3 0 0
node 155 3 0 0
gene  2 1 4 9.636877371680736 0 1.0 9.636877371680736 1
gene  2 2 4 -8.293654526195192 0 2.0 -8.293654526195192 1
gene  1 3 4 -2.1568625543369664 0 3.0 -2.1568625543369664 1
gene  2 1 10 -9.16349847208094 0 16.0 -9.16349847208094 1
gene  1 10 4 29.509500106048613 0 17.0 29.509500106048613 1
gene  3 2 10 8.606217550780388 0 27.0 8.606217550780388 1
gene  1 3 10 -3.3353860143454446 0 36.0 -3.3353860143454446 1
gene  3 2 155 0.32763322437860465 0 715.0 0.32763322437860465 1
gene  2 155 4 -4.059924516308941 0 716.0 -4.059924516308941 1
gene  2 10 155 -1.4386984643386536 0 1117.0 -1.4386984643386536 1
gene  3 3 155 0.5787928783057621 0 1170.0 0.5787928783057621 1
gene  3 1 155 -1.323442601801481 0 1508.0 -1.323442601801481 1
genomeend 3
/* Organism # 004 Fitness:  0.000 Error:  0.000                      */
genomestart  4
trait 1 0.35810747387912667 0.0 0.0 0.0 0.0 0.0 0.0 0.0 
trait 2 0.2 0.0 0.0 0.0 0.04788352237316654 0.0 0.0 0.02058122326742594 
trait 3 0.5650617362297436 0.2781608327548373 0.0 0.0 0.0 0.0 0.0 0.0 
node 1 3 1 1
node 2 2 1 1
node 3 1 1 3
node 4 1 0 2
node 10 3 0 0
node 155 3 0 0
gene  2 1 4 7.726434820805568 0 1.0 7.726434820805568 1
gene  2 2 4 -7.627526890410096 0 2.0 -7.627526890410096 1
gene  1 3 4 -2.186685520004233 0 3.0 -2.186685520004233 1
gene  2 1 10 -7.2476134371117675 0 16.0 -7.2476134371117675 1
gene  1 10 4 31.920295540629823 0 17.0 31.920295540629823 1
gene  3 2 10 6.6152193035241105 0 27.0 6.6152193035241105 1
gene  1 3 10 -5.1083136183864495 0 36.0 -5.1083136183864495 1
gene  3 2 155 2.569517065655801 0 715.0 2.569517065655801 1
gene  2 155 4 -0.5366371307302291 0 716.0 -0.5366371307302291 1
gene  2 10 155 0.23707789374234978 0 1117.0 0.23707789374234978 1
gene  3 3 155 0.4065682035446755 0 1170.0 0.4065682035446755 1
gene  3 1 155 -0.30441872588505364 0 1508.0 -0.30441872588505364 1
genomeend 4
/* Organism # 005 Fitness:  0.000 Error:  0.000                      */
genomestart  5
trait 1 0.35810747387912667 0.0 0.0 0.0 0.0 0.0 0.0 0.0 
trait 2 0.2 0.0 0.0 0.0 0.04788352237316654 0.0 0.0 0.02058122326742594 
trait 3 0.5650617362297436 0.2781608327548373 0.0 0.0 0.0 0.0 0.0 0.0 
node 1 3 1 1
node 2 2 1 1
node 3 1 1 3
node 4 1 0 2
node 10 3 0 0
node 155 3 0 0
gene  2 1 4 7.199806658006084 0 1.0 7.199806658006084 1
gene  2 2 4 -6.998828277074836 0 2.0 -6.998828277074836 1
gene  1 3 4 -3.2137523736187017 0 3.0 -3.2137523736187017 1
gene  2 1 10 -0.107974452503104 0 16.0 -0.107974452503104 1
gene  1 10 4 28.47648119359894 0 17.0 28.47648119359894 1
gene  3 2 10 4.8592301912437925 0 27.0 4.8592301912437925 1
gene  1 3 10 0.4683391275482904 0 36.0 0.4683391275482904 1
gene  3 2 155 2.240777684934626 0 715.0 2.240777684934626 1
gene  2 155 4 -2.3982458753300744 0 716.0 -2.3982458753300744 1
gene  2 10 155 1.9669068122276 0 1117.0 1.9669068122276 1
gene  3 3 155 3.0709519395920193 0 1170.0 3.0709519395920193 1
gene  3 1 155 -1.3065823036058857 0 1508.0 -1.3065823036058857 1
genomeend 5
/*-------------------------------------------------------------------*/
/* Species # 004         : (size= 004) (AvfFit= 7.341) (Age= 97.000)  */
/*-------------------------------------------------------------------*/
/* Organism # 006 Fitness:  0.000 Error:  0.000                      */
genomestart  6
trait 1 0.0 0.0 0.013065522669305052 0.9525400143396519 0.7381828199656462 0.6349587019070618 0.0 0.4165565516093289 
trait 2 0.7783702114424804 0.0 0.9937938718465783 0.0 0.5402345326160216 0.0 0.5632057399966438 0.004573605170539098 
trait 3 0.0 0.0 0.43988718416646866 0.0 0.5699560058873083 0.6112804699024106 0.0 0.6615812790764602 
node 1 2 1 1
node 2 1 1 1
node 3 2 1 3
node 4 2 0 2
node 10 1 0 0
node 17 1 0 0
node 174 1 0 0
node 247 1 0 0
node 352 1 0 0
gene  1 1 4 9.794793859824576 0 1.0 9.794793859824576 1
gene  2 2 4 1.220623575410901 0 2.0 1.220623575410901 1
gene  3 3 4 -2.636979057897164 0 3.0 -2.636979057897164 1
gene  2 1 10 10.242629645706298 0 16.0 10.242629645706298 1
gene  2 10 4 2.6174154731031054 0 17.0 2.6174154731031054 1
gene  2 2 10 -3.7259424753595316 0 27.0 -3.7259424753595316 1
gene  2 10 17 -0.11552792736053696 0 46.0 -0.11552792736053696 1
gene  1 17 4 -12.86062875564448 0 47.0 -12.86062875564448 1
gene  1 2 17 -1.220839518090098 0 304.0 -1.220839518090098 1
gene  1 1 174 -8.843535380435227 0 813.0 -8.843535380435227 1
gene  1 174 4 -1.4269068796962485 0 814.0 -1.4269068796962485 1
gene  2 3 17 2.3250556423232704 0 860.0 2.3250556423232704 1
gene  2 2 247 -3.5325491131419477 0 1099.0 -3.5325491131419477 1
gene  2 247 4 2.5069216857269607 0 1100.0 2.5069216857269607 1
gene  2 247 17 -4.475954752488945 0 1157.0 -4.475954752488945 1
gene  3 3 10 -3.198278483018633 0 1181.0 -3.198278483018633 1
gene  2 3 174 0.8926129093928341 0 1329.0 0.8926129093928341 1
gene  3 10 247 3.238385646023857 0 1488.0 3.238385646023857 1
gene  1 17 352 -1.14368040654667 0 1528.0 -1.14368040654667 1
gene  1 352 4 2.2923387539961055 0 1529.0 2.2923387539961055 1
gene  2 2 174 9.194261805862324 0 1661.0 9.194261805862324 1
gene  3 17 174 -2.011322312816457 0 1769.0 -2.011322312816457 1
genomeend 6
/* Organism # 007 Fitness:  0.000 Error:  0.000                      */
genomestart  7
trait 1 0.0 0.0 0.013065522669305052 0.9525400143396519 0.7381828199656462 0.6349587019070618 0.0 0.4165565516093289 
trait 2 0.7783702114424804 0.0 0.9937938718465783 0.0 0.5402345326160216 0.0 0.5632057399966438 0.004573605170539098 
trait 3 0.0 0.0 0.43988718416646866 0.0 0.5699560058873083 0.6112804699024106 0.0 0.6615812790764602 
node 1 2 1 1
node 2 1 1 1
node 3 2 1 3
node 4 2 0 2
node 10 1 0 0
node 17 1 0 0
node 174 1 0 0
node 247 1 0 0
node 352 1 0 0
gene  1 1 4 11.143846444628753 0 1.0 11.143846444628753 1
gene  2 2 4 1.032581593621737 0 2.0 1.032581593621737 1
gene  3 3 4 -1.3052288795527704 0 3.0 -1.3052288795527704 1
gene  2 1 10 7.537157396721101 0 16.0 7.537157396721101 1
gene  2 10 4 0.2221706764171988 0 17.0 0.2221706764171988 1
gene  2 2 10 0.3063007042309591 0 27.0 0.3063007042309591 1
gene  2 10 17 -2.87488269032316 0 46.0 -2.87488269032316 1
gene  1 17 4 -10.958279282065037 0 47.0 -10.958279282065037 1
gene  1 2 17 1.555211597265633 0 304.0 1.555211597265633 1
gene  1 1 174 -10.283231122678043 0 813.0 -10.283231122678043 1
gene  1 174 4 -0.5964637039063443 0 814.0 -0.5964637039063443 1
gene  2 3 17 6.162907998761245 0 860.0 6.162907998761245 1
gene  2 2 247 -4.9150852401273655 0 1099.0 -4.9150852401273655 1
gene  2 247 4 3.974082401192211 0 1100.0 3.974082401192211 1
gene  2 247 17 -3.5398690840457627 0 1157.0 -3.5398690840457627 1
gene  3 3 10 -1.6880405451240241 0 1181.0 -1.6880405451240241 1
gene  2 3 174 3.043099426032633 0 1329.0 3.043099426032633 1
gene  3 10 247 -0.7158006861350668 0 1488.0 -0.7158006861350668 1
gene  1 17 352 2.339697832542153 0 1528.0 2.339697832542153 1
gene  1 352 4 -15.725265941521613 0 1529.0 -15.725265941521613 1
gene  2 2 174 9.300785735543212 0 1661.0 9.300785735543212 1
gene  3 17 174 0.31221349753914357 0 1769.0 0.31221349753914357 1
genomeend 7
/* Organism # 008 Fitness:  0.000 Error:  0.000                      */
genomestart  8
trait 1 0.0 0.0 0.013065522669305052 0.9525400143396519 0.7381828199656462 0.6349587019070618 0.0 0.4165565516093289 
trait 2 0.7783702114424804 0.0 0.9937938718465783 0.0 0.5402345326160216 0.0 0.5632057399966438 0.004573605170539098 
trait 3 0.0 0.0 0.43988718416646866 0.0 0.5699560058873083 0.6112804699024106 0.0 0.6615812790764602 
node 1 2 1 1
node 2 1 1 1
node 3 2 1 3
node 4 2 0 2
node 10 1 0 0
node 17 1 0 0
node 174 1 0 0
node 247 1 0 0
node 352 1 0 0
gene  1 1 4 10.65093860523131 0 1.0 10.65093860523131 1
gene  2 2 4 -0.0654313279239751 0 2.0 -0.0654313279239751 1
gene  3 3 4 -1.4385246710016655 0 3.0 -1.4385246710016655 1
gene  2 1 10 8.50539338183178 0 16.0 8.50539338183178 1
gene  2 10 4 -1.5169739440590233 0 17.0 -1.5169739440590233 1
gene  2 2 10 -0.889565571127304 0 27.0 -0.889565571127304 1
gene  2 10 17 1.3902244343983283 0 46.0 1.3902244343983283 1
gene  1 17 4 -12.007719219274245 0 47.0 -12.007719219274245 1
gene  1 2 17 0.2302467028447276 0 304.0 0.2302467028447276 1
gene  1 1 174 -12.356995819422341 0 813.0 -12.356995819422341 1
gene  1 174 4 -2.5430071750728978 0 814.0 -2.5430071750728978 1
gene  2 3 17 3.022601061330184 0 860.0 3.022601061330184 1
gene  2 2 247 -5.743273481158544 0 1099.0 -5.743273481158544 1
gene  2 247 4 2.6492571575029253 0 1100.0 2.6492571575029253 1
gene  2 247 17 -5.452626906624014 0 1157.0 -5.452626906624014 1
gene  3 3 10 -2.8074268280559718 0 1181.0 -2.8074268280559718 1
gene  2 3 174 5.14011472214927 0 1329.0 5.14011472214927 1
gene  3 10 247 1.7500689459171601 0 1488.0 1.7500689459171601 1
gene  1 17 352 -1.14368040654667 0 1528.0 -1.14368040654667 1
gene  1 352 4 -17.79203124067078 0 1529.0 -17.79203124067078 1
gene  2 2 174 9.31038493216901 0 1661.0 9.31038493216901 1
gene  3 17 174 -7.732631109582317 0 1769.0 -7.732631109582317 1
genomeend 8
/* Organism # 009 Fitness:  0.000 Error:  0.000                      */
genomestart  9
trait 1 0.0 0.0 0.013065522669305052 0.9525400143396519 0.7381828199656462 0.6349587019070618 0.0 0.4165565516093289 
trait 2 0.7783702114424804 0.0 0.9937938718465783 0.0 0.5402345326160216 0.0 0.5632057399966438 0.004573605170539098 
trait 3 0.0 0.0 0.43988718416646866 0.0 0.5699560058873083 0.6112804699024106 0.0 0.6615812790764602 
node 1 2 1 1
node 2 1 1 1
node 3 2 1 3
node 4 2 0 2
node 10 1 0 0
node 17 1 0 0
node 174 1 0 0
node 247 1 0 0
node 352 1 0 0
gene  1 1 4 8.271352346177972 0 1.0 8.271352346177972 1
gene  2 2 4 0.03529339133097642 0 2.0 0.03529339133097642 1
gene  3 3 4 -1.2016961995761708 0 3.0 -1.2016961995761708 1
gene  2 1 10 9.695437494414984 0 16.0 9.695437494414984 1
gene  2 10 4 1.2851773152726682 0 17.0 1.2851773152726682 1
gene  2 2 10 -2.012687788775993 0 27.0 -2.012687788775993 1
gene  2 10 17 -2.638300643384727 0 46.0 -2.638300643384727 1
gene  1 17 4 -11.028236548174231 0 47.0 -11.028236548174231 1
gene  1 2 17 -2.594142387877176 0 304.0 -2.594142387877176 1
gene  1 1 174 -9.536501396382139 0 813.0 -9.536501396382139 1
gene  1 174 4 1.3482296951624242 0 814.0 1.3482296951624242 1
gene  2 3 17 2.849178424597664 0 860.0 2.849178424597664 1
gene  2 2 247 -5.207679363576968 0 1099.0 -5.207679363576968 1
gene  2 247 4 4.092359725198746 0 1100.0 4.092359725198746 1
gene  2 247 17 -5.914506322498091 0 1157.0 -5.914506322498091 1
gene  3 3 10 -5.6392761788425 0 1181.0 -5.6392761788425 1
gene  2 3 174 3.0867704950242274 0 1329.0 3.0867704950242274 1
gene  3 10 247 -0.3034653813198456 0 1488.0 -0.3034653813198456 1
gene  1 17 352 0.6610416952368521 0 1528.0 0.6610416952368521 1
gene  1 352 4 -15.725265941521613 0 1529.0 -15.725265941521613 1
gene  2 2 174 -1.7045786340578652 0 1661.0 -1.7045786340578652 1
gene  3 17 174 -9.741971144461683 0 1769.0 -9.741971144461683 1
genomeend 9
/*-------------------------------------------------------------------*/
/* Species # 019         : (size= 002) (AvfFit= 3.883) (Age= 90.000)  */
/*-------------------------------------------------------------------*/
/* Organism # 010 Fitness:  0.000 Error:  0.000                      */
genomestart  10
trait 1 0.0 0.23771445834514648 0.0 0.0 2.3700864833416926 0.7047579036485501 0.9539777079464261 0.0 
trait 2 0.5851216373102884 0.0 0.0 0.0 0.0 0.6399168881102438 0.0 0.0 
trait 3 0.4604670546440274 0.26737995754085825 0.0 0.030157592811150324 0.17800180791754922 0.0 0.0 0.0 
node 1 1 1 1
node 2 2 1 1
node 3 1 1 3
node 4 3 0 2
node 6 1 0 0
node 14 1 0 0
node 22 3 0 0
node 27 3 0 0
node 58 1 0 0
node 85 3 0 0
node 307 1 0 0
node 335 1 0 0
node 392 1 0 0
gene  1 1 4 -13.627277114413438 0 1.0 -13.627277114413438 1
gene  2 2 4 -0.7232044040884058 0 2.0 -0.7232044040884058 0
gene  3 3 4 8.895520228720525 0 3.0 8.895520228720525 1
gene  2 2 6 13.893085407588384 0 6.0 13.893085407588384 0
gene  2 6 4 1.2713274472262792 0 7.0 1.2713274472262792 1
gene  2 3 6 1.324237292751211 0 12.0 1.324237292751211 1
gene  2 1 6 -2.2330814619714627 0 15.0 -2.2330814619714627 1
gene  1 1 14 -3.064452097522104 0 33.0 -3.064452097522104 1
gene  1 14 4 2.409128612269833 0 34.0 2.409128612269833 1
gene  3 14 6 -3.515573935873655 0 51.0 -3.515573935873655 1
gene  2 2 22 -0.5260827384971639 0 62.0 -0.5260827384971639 1
gene  2 22 4 5.582917450071323 0 63.0 5.582917450071323 1
gene  2 2 27 -2.580617332908337 0 80.0 -2.580617332908337 1
gene  3 27 6 -3.7566830111431404 0 81.0 -3.7566830111431404 1
gene  1 27 22 -0.4603260788902827 0 185.0 -0.4603260788902827 1
gene  2 22 58 -3.733115770136058 0 256.0 -3.733115770136058 1
gene  2 58 4 -2.148822336089532 0 257.0 -2.148822336089532 1
gene  3 14 27 10.376736783088525 0 293.0 10.376736783088525 1
gene  3 1 27 -0.9080707839349428 0 367.0 -0.9080707839349428 0
gene  2 14 85 0.8452931155221199 0 422.0 0.8452931155221199 1
gene  3 85 6 -0.4183745276178491 0 423.0 -0.4183745276178491 1
gene  2 3 14 -3.204162420386305 0 592.0 -3.204162420386305 1
gene  2 22 6 -7.254654649397622 0 930.0 -7.254654649397622 1
gene  1 27 85 8.780097014439917 0 1020.0 8.780097014439917 1
gene  1 3 22 -1.2647769361704133 0 1080.0 -1.2647769361704133 1
gene  1 2 85 -4.507394758213299 0 1103.0 -4.507394758213299 1
gene  3 58 6 -0.047456447903802546 0 1312.0 -0.047456447903802546 1
gene  2 2 307 3.9902586572598517 0 1361.0 3.9902586572598517 1
gene  2 307 6 4.362784200189653 0 1362.0 4.362784200189653 1
gene  3 14 335 0.21943064992318195 0 1470.0 0.21943064992318195 1
gene  3 335 6 6.433058081642267 0 1471.0 6.433058081642267 1
gene  1 335 27 3.251509861681507 0 1691.0 3.251509861681507 1
gene  3 1 392 -1.4420204173162714 0 1709.0 -1.4420204173162714 1
gene  3 392 27 2.473635452683914 0 1710.0 2.473635452683914 1
genomeend 10
/* Organism # 011 Fitness:  0.000 Error:  0.000                      */
genomestart  11
trait 1 0.0 0.23771445834514648 0.0 0.0 2.3700864833416926 0.0 0.9539777079464261 0.1518926418700044 
trait 2 0.5851216373102884 0.0 0.0 0.0 0.0 0.6399168881102438 0.0 0.0 
trait 3 0.4604670546440274 0.26737995754085825 0.0 0.030157592811150324 0.17800180791754922 0.0 0.0 0.0 
node 1 1 1 1
node 2 2 1 1
node 3 1 1 3
node 4 3 0 2
node 6 1 0 0
node 14 1 0 0
node 22 3 0 0
node 27 3 0 0
node 58 1 0 0
node 85 3 0 0
node 307 1 0 0
node 335 1 0 0
node 392 1 0 0
gene  1 1 4 -11.953455061214493 0 1.0 -11.953455061214493 1
gene  2 2 4 -0.1528136461496723 0 2.0 -0.1528136461496723 0
gene  3 3 4 8.895520228720525 0 3.0 8.895520228720525 1
gene  2 2 6 12.962243491477157 0 6.0 12.962243491477157 0
gene  2 6 4 4.176767178420906 0 7.0 4.176767178420906 1
gene  2 3 6 -8.443400862609748 0 12.0 -8.443400862609748 1
gene  2 1 6 -4.088162040796577 0 15.0 -4.088162040796577 1
gene  1 1 14 -2.7870251640481465 0 33.0 -2.7870251640481465 1
gene  1 14 4 1.6048648535309282 0 34.0 1.6048648535309282 1
gene  3 14 6 -2.637228998592052 0 51.0 -2.637228998592052 1
gene  2 2 22 -2.0658446346112966 0 62.0 -2.0658446346112966 1
gene  2 22 4 3.2590870836808787 0 63.0 3.2590870836808787 1
gene  2 2 27 -0.3068942770382053 0 80.0 -0.3068942770382053 1
gene  3 27 6 -1.6373747566434744 0 81.0 -1.6373747566434744 1
gene  1 27 22 -2.4484414009678988 0 185.0 -2.4484414009678988 1
gene  2 22 58 -2.1238472521660383 0 256.0 -2.1238472521660383 1
gene  2 58 4 -2.148822336089532 0 257.0 -2.148822336089532 1
gene  3 14 27 11.279321269127625 0 293.0 11.279321269127625 1
gene  3 1 27 9.865198530049028 0 367.0 9.865198530049028 0
gene  2 14 85 10.913715488872025 0 422.0 10.913715488872025 1
gene  3 85 6 2.5177588278297285 0 423.0 2.5177588278297285 1
gene  2 3 14 -4.423350844387451 0 592.0 -4.423350844387451 1
gene  2 22 6 -7.829328121254826 0 930.0 -7.829328121254826 1
gene  1 27 85 7.385199627342521 0 1020.0 7.385199627342521 1
gene  1 3 22 2.899019739698475 0 1080.0 2.899019739698475 1
gene  1 2 85 -2.3908646586152336 0 1103.0 -2.3908646586152336 1
gene  3 58 6 0.28755776162859625 0 1312.0 0.28755776162859625 1
gene  2 2 307 3.9902586572598517 0 1361.0 3.9902586572598517 1
gene  2 307 6 3.514731562106846 0 1362.0 3.514731562106846 1
gene  3 14 335 -1.994102257801754 0 1470.0 -1.994102257801754 1
gene  3 335 6 8.932267574045145 0 1471.0 8.932267574045145 1
gene  1 335 27 1.0805723926943847 0 1691.0 1.0805723926943847 1
gene  3 1 392 -1.4420204173162714 0 1709.0 -1.4420204173162714 1
gene  3 392 27 -2.4509770352862503 0 1710.0 -2.4509770352862503 1
gene  1 85 4 -6.7367111201615675 0 1805.0 -6.7367111201615675 1
genomeend 11
/*-------------------------------------------------------------------*/
/* Species # 020         : (size= 005) (AvfFit= 7.992) (Age= 90.000)  */
/*-------------------------------------------------------------------*/
/* Organism # 012 Fitness:  0.000 Error:  0.000                      */
genomestart  12
trait 1 0.0 0.9125018113400047 0.0 0.764682018636071 0.0 0.49378067174986784 0.0 1.842932984263128 
trait 2 0.2 0.0 0.0 0.0 0.0 0.0 0.0 0.02058122326742594 
trait 3 0.3 0.4304410027374149 0.4078168013124309 0.0 0.31823630493510047 0.5048816725057351 0.0 0.0 
node 1 2 1 1
node 2 2 1 1
node 3 1 1 3
node 4 1 0 2
node 10 3 0 0
node 30 1 0 0
node 38 1 0 0
node 211 1 0 0
node 318 1 0 0
node 328 1 0 0
node 332 1 0 0
gene  1 1 4 0.17802229124806723 0 1.0 0.17802229124806723 1
gene  2 2 4 2.0714428416959105 0 2.0 2.0714428416959105 1
gene  3 3 4 -11.562916398255147 0 3.0 -11.562916398255147 1
gene  1 1 10 -17.563640387413063 0 16.0 -17.563640387413063 1
gene  1 10 4 11.661455150860416 0 17.0 11.661455150860416 1
gene  3 2 10 12.60897621428465 0 27.0 12.60897621428465 1
gene  3 3 10 -2.7979918391296508 0 36.0 -2.7979918391296508 1
gene  1 1 30 -5.393974056845938 0 88.0 -5.393974056845938 1
gene  1 30 10 0.9147045272962917 0 89.0 0.9147045272962917 0
gene  1 30 4 9.463591579133103 0 104.0 9.463591579133103 1
gene  2 2 38 -7.744673009180637 0 140.0 -7.744673009180637 1
gene  2 38 4 0.14455579851411104 0 141.0 0.14455579851411104 1
gene  3 10 38 1.9056810608159391 0 177.0 1.9056810608159391 1
gene  2 2 30 0.0988053983351822 0 341.0 0.0988053983351822 1
gene  2 1 38 -0.024473213612089317 0 379.0 -0.024473213612089317 1
gene  3 3 30 8.839449097631656 0 463.0 8.839449097631656 1
gene  2 30 38 5.875953972679285 0 478.0 5.875953972679285 1
gene  1 3 38 0.7222402279664968 0 518.0 0.7222402279664968 1
gene  1 10 211 9.998676714329235 0 967.0 9.998676714329235 1
gene  1 211 4 0.07371701674221276 0 968.0 0.07371701674221276 1
gene  3 2 211 0.6942608574188536 0 1066.0 0.6942608574188536 0
gene  1 38 211 -1.1332416580651796 0 1108.0 -1.1332416580651796 1
gene  1 1 211 1.9747231075320912 0 1129.0 1.9747231075320912 1
gene  1 1 318 1.6546136664749982 0 1402.0 1.6546136664749982 1
gene  1 318 30 -2.76034179001213 0 1403.0 -2.76034179001213 1
gene  3 2 328 -0.18505050666811984 0 1443.0 -0.18505050666811984 1
gene  3 328 211 -2.157940560842138 0 1444.0 -2.157940560842138 1
gene  1 30 332 -0.11760392496187766 0 1457.0 -0.11760392496187766 1
gene  1 332 10 -2.790908000125593 0 1458.0 -2.790908000125593 1
gene  2 318 4 -1.3669620777251317 0 1718.0 -1.3669620777251317 1
gene  1 328 4 0.965002971477481 0 1802.0 0.965002971477481 1
genomeend 12
/* Organism # 013 Fitness:  0.000 Error:  0.000                      */
genomestart  13
trait 1 0.0 0.9125018113400047 0.0 0.764682018636071 0.0 0.49378067174986784 0.0 1.842932984263128 
trait 2 0.2 0.0 0.0 0.0 0.0 0.0 0.0 0.02058122326742594 
trait 3 0.3 0.4304410027374149 0.4078168013124309 0.0 0.31823630493510047 0.5048816725057351 0.0 0.0 
node 1 2 1 1
node 2 2 1 1
node 3 1 1 3
node 4 1 0 2
node 10 3 0 0
node 30 1 0 0
node 38 1 0 0
node 211 1 0 0
node 318 1 0 0
node 328 1 0 0
node 332 1 0 0
gene  1 1 4 -6.139171526349742 0 1.0 -6.139171526349742 1
gene  2 2 4 1.362603131631501 0 2.0 1.362603131631501 1
gene  3 3 4 -12.753654943775826 0 3.0 -12.753654943775826 1
gene  1 1 10 -2.0322309638763874 0 16.0 -2.0322309638763874 1
gene  1 10 4 -0.04134320841361727 0 17.0 -0.04134320841361727 1
gene  3 2 10 -1.9021486815418929 0 27.0 -1.9021486815418929 1
gene  3 3 10 -5.7897269893134045 0 36.0 -5.7897269893134045 1
gene  1 1 30 -6.189648078100492 0 88.0 -6.189648078100492 1
gene  1 30 10 -5.89751376340193 0 89.0 -5.89751376340193 0
gene  1 30 4 8.446717901916266 0 104.0 8.446717901916266 1
gene  2 2 38 -7.050236018412765 0 140.0 -7.050236018412765 1
gene  2 38 4 0.23380644595960898 0 141.0 0.23380644595960898 1
gene  3 10 38 0.6236765363457102 0 177.0 0.6236765363457102 1
gene  2 2 30 8.145200983905433 0 341.0 8.145200983905433 1
gene  2 1 38 0.629909625239579 0 379.0 0.629909625239579 1
gene  3 3 30 8.839449097631656 0 463.0 8.839449097631656 1
gene  2 30 38 9.714991110760813 0 478.0 9.714991110760813 1
gene  1 3 38 -4.1292206582923425 0 518.0 -4.1292206582923425 1
gene  1 10 211 7.634744246748208 0 967.0 7.634744246748208 1
gene  1 211 4 -1.6007070360527407 0 968.0 -1.6007070360527407 1
gene  3 2 211 -2.116968639128612 0 1066.0 -2.116968639128612 0
gene  1 38 211 -2.419501642491663 0 1108.0 -2.419501642491663 1
gene  1 1 211 5.005588807688088 0 1129.0 5.005588807688088 1
gene  1 1 318 1.4652714385015568 0 1402.0 1.4652714385015568 1
gene  1 318 30 -4.44928800675207 0 1403.0 -4.44928800675207 1
gene  3 2 328 0.1417607875789224 0 1443.0 0.1417607875789224 1
gene  3 328 211 -2.0147764146756275 0 1444.0 -2.0147764146756275 1
gene  1 30 332 2.33570190342626 0 1457.0 2.33570190342626 1
gene  1 332 10 -1.7726868539799763 0 1458.0 -1.7726868539799763 1
gene  2 318 4 -3.6674523065135407 0 1718.0 -3.6674523065135407 1
gene  3 3 332 -1.2722195853418408 0 1775.0 -1.2722195853418408 1
genomeend 13
/* Organism # 014 Fitness:  0.000 Error:  0.000                      */
genomestart  14
trait 1 0.0 0.9125018113400047 0.0 0.764682018636071 0.0 0.49378067174986784 0.0 1.842932984263128 
trait 2 0.2 0.0 0.0 0.0 0.0 0.0 0.0 0.02058122326742594 
trait 3 0.3 0.4304410027374149 0.4078168013124309 0.0 0.31823630493510047 0.5048816725057351 0.0 0.0 
node 1 2 1 1
node 2 2 1 1
node 3 1 1 3
node 4 1 0 2
node 10 3 0 0
node 30 1 0 0
node 38 1 0 0
node 211 1 0 0
node 318 1 0 0
node 328 1 0 0
node 332 1 0 0
gene  1 1 4 -6.5039878553693065 0 1.0 -6.5039878553693065 1
gene  2 2 4 0.8761270677444506 0 2.0 0.8761270677444506 1
gene  3 3 4 -13.90546034386901 0 3.0 -13.90546034386901 1
gene  1 1 10 -17.278419895743678 0 16.0 -17.278419895743678 1
gene  1 10 4 12.56019432847329 0 17.0 12.56019432847329 1
gene  3 2 10 12.899389244434705 0 27.0 12.899389244434705 1
gene  3 3 10 -2.369797387120989 0 36.0 -2.369797387120989 1
gene  1 1 30 -6.142449160256247 0 88.0 -6.142449160256247 1
gene  1 30 10 -4.700493021070006 0 89.0 -4.700493021070006 0
gene  1 30 4 7.799031337800855 0 104.0 7.799031337800855 1
gene  2 2 38 -5.669830226259268 0 140.0 -5.669830226259268 1
gene  2 38 4 -2.2026472738875498 0 141.0 -2.2026472738875498 1
gene  3 10 38 -0.4084524764537809 0 177.0 -0.4084524764537809 1
gene  2 2 30 9.461084128801069 0 341.0 9.461084128801069 1
gene  2 1 38 0.7280072612571524 0 379.0 0.7280072612571524 1
gene  3 3 30 9.343501788912318 0 463.0 9.343501788912318 1
gene  2 30 38 8.266106278544315 0 478.0 8.266106278544315 1
gene  1 3 38 -3.6546567851155665 0 518.0 -3.6546567851155665 1
gene  1 10 211 7.003708322893971 0 967.0 7.003708322893971 1
gene  1 211 4 -2.8583919781189944 0 968.0 -2.8583919781189944 1
gene  3 2 211 1.416715651912514 0 1066.0 1.416715651912514 0
gene  1 38 211 1.922701842127264 0 1108.0 1.922701842127264 1
gene  1 1 211 4.881651998063076 0 1129.0 4.881651998063076 1
gene  1 1 318 -0.26632303662646867 0 1402.0 -0.26632303662646867 1
gene  1 318 30 -5.493600321008145 0 1403.0 -5.493600321008145 1
gene  3 2 328 -3.9865913984800923 0 1443.0 -3.9865913984800923 1
gene  3 328 211 1.8154888968174754 0 1444.0 1.8154888968174754 1
gene  1 30 332 -0.22641422338055106 0 1457.0 -0.22641422338055106 1
gene  1 332 10 -3.9480073580224397 0 1458.0 -3.9480073580224397 1
gene  2 318 4 -4.9179492093167205 0 1718.0 -4.9179492093167205 1
gene  3 3 332 -5.103217172165058 0 1775.0 -5.103217172165058 1
genomeend 14
/* Organism # 015 Fitness:  0.000 Error:  0.000                      */
genomestart  15
trait 1 0.0 0.9125018113400047 0.0 0.764682018636071 0.0 0.49378067174986784 0.0 1.842932984263128 
trait 2 0.2 0.0 0.0 0.0 0.0 0.0 0.0 0.02058122326742594 
trait 3 0.3 0.4304410027374149 0.4078168013124309 0.0 0.31823630493510047 0.5048816725057351 0.0 0.0 
node 1 2 1 1
node 2 2 1 1
node 3 1 1 3
node 4 1 0 2
node 10 3 0 0
node 30 1 0 0
node 38 1 0 0
node 211 1 0 0
node 318 1 0 0
node 328 1 0 0
node 332 1 0 0
gene  1 1 4 0.17802229124806723 0 1.0 0.17802229124806723 1
gene  2 2 4 2.0714428416959105 0 2.0 2.0714428416959105 1
gene  3 3 4 -11.562916398255147 0 3.0 -11.562916398255147 1
gene  1 1 10 -17.563640387413063 0 16.0 -17.563640387413063 1
gene  1 10 4 11.661455150860416 0 17.0 11.661455150860416 1
gene  3 2 10 12.60897621428465 0 27.0 12.60897621428465 1
gene  3 3 10 -2.7979918391296508 0 36.0 -2.7979918391296508 1
gene  1 1 30 -5.393974056845938 0 88.0 -5.393974056845938 1
gene  1 30 10 0.9147045272962917 0 89.0 0.9147045272962917 0
gene  1 30 4 9.463591579133103 0 104.0 9.463591579133103 1
gene  2 2 38 -7.744673009180637 0 140.0 -7.744673009180637 1
gene  2 38 4 0.14455579851411104 0 141.0 0.14455579851411104 1
gene  3 10 38 1.9056810608159391 0 177.0 1.9056810608159391 1
gene  2 2 30 0.0988053983351822 0 341.0 0.0988053983351822 1
gene  2 1 38 -0.024473213612089317 0 379.0 -0.024473213612089317 1
gene  3 3 30 8.839449097631656 0 463.0 8.839449097631656 1
gene  2 30 38 5.875953972679285 0 478.0 5.875953972679285 1
gene  1 3 38 0.7222402279664968 0 518.0 0.7222402279664968 1
gene  1 10 211 9.998676714329235 0 967.0 9.998676714329235 1
gene  1 211 4 0.07371701674221276 0 968.0 0.07371701674221276 1
gene  3 2 211 0.6942608574188536 0 1066.0 0.6942608574188536 0
gene  1 38 211 -1.1332416580651796 0 1108.0 -1.1332416580651796 1
gene  1 1 211 1.9747231075320912 0 1129.0 1.9747231075320912 1
gene  1 1 318 1.6546136664749982 0 1402.0 1.6546136664749982 1
gene  1 318 30 -2.76034179001213 0 1403.0 -2.76034179001213 1
gene  3 2 328 -0.18505050666811984 0 1443.0 -0.18505050666811984 1
gene  3 328 211 -2.157940560842138 0 1444.0 -2.157940560842138 1
gene  1 30 332 -0.11760392496187766 0 1457.0 -0.11760392496187766 1
gene  1 332 10 -2.790908000125593 0 1458.0 -2.790908000125593 1
gene  2 318 4 -1.3669620777251317 0 1718.0 -1.3669620777251317 1
genomeend 15
/* Organism # 016 Fitness:  0.000 Error:  0.000                      */
genomestart  16
trait 1 0.0 0.9125018113400047 0.0 0.764682018636071 0.0 0.49378067174986784 0.0 1.842932984263128 
trait 2 0.2 0.0 0.0 0.0 0.0 0.0 0.0 0.02058122326742594 
trait 3 0.3 0.4304410027374149 0.4078168013124309 0.0 0.31823630493510047 0.5048816725057351 0.0 0.0 
node 1 2 1 1
node 2 2 1 1
node 3 1 1 3
node 4 1 0 2
node 10 3 0 0
node 30 1 0 0
node 38 1 0 0
node 211 1 0 0
node 318 1 0 0
node 328 1 0 0
node 332 1 0 0
gene  1 1 4 -6.031814108682721 0 1.0 -6.031814108682721 1
gene  2 2 4 0.9474122285782456 0 2.0 0.9474122285782456 1
gene  3 3 4 -11.562916398255147 0 3.0 -11.562916398255147 1
gene  1 1 10 -17.591437304436575 0 16.0 -17.591437304436575 1
gene  1 10 4 11.661455150860416 0 17.0 11.661455150860416 1
gene  3 2 10 13.282394650894899 0 27.0 13.282394650894899 1
gene  3 3 10 -4.37094961612266 0 36.0 -4.37094961612266 1
gene  1 1 30 -6.189648078100492 0 88.0 -6.189648078100492 1
gene  1 30 10 -6.807758318794528 0 89.0 -6.807758318794528 0
gene  1 30 4 8.446717901916266 0 104.0 8.446717901916266 1
gene  2 2 38 -8.084828176155943 0 140.0 -8.084828176155943 1
gene  2 38 4 0.14455579851411104 0 141.0 0.14455579851411104 1
gene  3 10 38 -0.0738763418354283 0 177.0 -0.0738763418354283 1
gene  2 2 30 7.98869425609444 0 341.0 7.98869425609444 1
gene  2 1 38 2.4002587845097074 0 379.0 2.4002587845097074 1
gene  3 3 30 8.839449097631656 0 463.0 8.839449097631656 1
gene  2 30 38 7.739021944570807 0 478.0 7.739021944570807 1
gene  1 3 38 -1.6711347782288748 0 518.0 -1.6711347782288748 1
gene  1 10 211 8.646210059891818 0 967.0 8.646210059891818 1
gene  1 211 4 -1.6007070360527407 0 968.0 -1.6007070360527407 1
gene  3 2 211 0.21510293063163788 0 1066.0 0.21510293063163788 0
gene  1 38 211 -0.19916788778549888 0 1108.0 -0.19916788778549888 1
gene  1 1 211 3.2645523836995425 0 1129.0 3.2645523836995425 1
gene  1 1 318 -0.6513629742768883 0 1402.0 -0.6513629742768883 1
gene  1 318 30 -3.334277639787629 0 1403.0 -3.334277639787629 1
gene  3 2 328 -1.8060772833890253 0 1443.0 -1.8060772833890253 1
gene  3 328 211 -0.37906303038843503 0 1444.0 -0.37906303038843503 1
gene  1 30 332 1.9252802312843138 0 1457.0 1.9252802312843138 1
gene  1 332 10 -3.6220588803533857 0 1458.0 -3.6220588803533857 1
gene  2 318 4 -2.988174735346779 0 1718.0 -2.988174735346779 1
gene  3 3 332 -5.103217172165058 0 1775.0 -5.103217172165058 1
gene  2 332 38 -8.604350719400633 0 1803.0 -8.604350719400633 1
genomeend 16
/*-------------------------------------------------------------------*/
/* Species # 021         : (size= 003) (AvfFit= 5.238) (Age= 89.000)  */
/*-------------------------------------------------------------------*/
/* Organism # 017 Fitness:  0.000 Error:  0.000                      */
genomestart  17
trait 1 0.0 0.0 0.6570118649152256 0.0 0.08139246229573216 0.0 0.0 0.1472234544084979 
trait 2 0.0 0.0 0.0 0.9681674779715694 0.8007847726066984 0.0 0.45856504130002207 0.8005652713232411 
trait 3 1.0586037523159908 0.7311552394503794 0.0 0.2746021049012679 0.9745220175125502 0.0 0.0 0.0 
node 1 1 1 1
node 2 1 1 1
node 3 1 1 3
node 4 1 0 2
node 6 3 0 0
node 21 1 0 0
node 34 1 0 0
node 77 1 0 0
node 132 2 0 0
node 135 2 0 0
node 162 1 0 0
node 195 1 0 0
node 262 1 0 0
node 402 1 0 0
gene  1 1 4 7.312587842036318 0 1.0 7.312587842036318 1
gene  1 2 4 0.5341432537321096 0 2.0 0.5341432537321096 1
gene  1 3 4 2.7202167078396498 0 3.0 2.7202167078396498 1
gene  2 2 6 -3.04176476405607 0 6.0 -3.04176476405607 1
gene  2 6 4 -0.5922774613309753 0 7.0 -0.5922774613309753 1
gene  2 3 6 -0.3294204726400014 0 12.0 -0.3294204726400014 1
gene  3 1 6 4.558498986386639 0 18.0 4.558498986386639 1
gene  1 1 21 4.569241610376889 0 58.0 4.569241610376889 1
gene  1 21 4 4.904077329033223 0 59.0 4.904077329033223 1
gene  1 1 34 0.9750943370215951 0 116.0 0.9750943370215951 0
gene  1 34 4 -1.0132809192927132 0 117.0 -1.0132809192927132 1
gene  1 34 21 -1.6122411187111338 0 220.0 -1.6122411187111338 1
gene  1 2 77 2.5623255053092415 0 370.0 2.5623255053092415 1
gene  1 77 4 -5.464888717224662 0 371.0 -5.464888717224662 1
gene  2 1 77 -0.09152179961961648 0 574.0 -0.09152179961961648 1
gene  1 34 132 -2.9558794561958237 0 632.0 -2.9558794561958237 1
gene  1 132 4 -0.4792623786088035 0 633.0 -0.4792623786088035 1
gene  1 2 135 -4.029307503725792 0 643.0 -4.029307503725792 1
gene  2 135 6 3.0890615558515426 0 644.0 3.0890615558515426 1
gene  3 132 77 1.1689031162964993 0 739.0 1.1689031162964993 0
gene  1 1 162 1.6798352973189101 0 753.0 1.6798352973189101 1
gene  1 162 4 -2.267325752032993 0 754.0 -2.267325752032993 1
gene  2 135 77 -1.7432402466053376 0 767.0 -1.7432402466053376 1
gene  2 21 132 5.034801002793353 0 800.0 5.034801002793353 1
gene  1 162 34 -2.5659875845350437 0 839.0 -2.5659875845350437 1
gene  2 3 77 0.7819911604961456 0 859.0 0.7819911604961456 1
gene  1 135 195 -11.824737982936911 0 904.0 -11.824737982936911 1
gene  2 195 6 4.294883251176575 0 905.0 4.294883251176575 1
gene  3 6 21 4.209511987767666 0 976.0 4.209511987767666 1
gene  2 162 77 -7.363563450178887 0 1105.0 -7.363563450178887 1
gene  1 1 262 -1.6235178293885018 0 1182.0 -1.6235178293885018 1
gene  1 262 34 -1.7199862910504358 0 1183.0 -1.7199862910504358 1
gene  1 135 162 0.45972326304785766 0 1355.0 0.45972326304785766 1
gene  2 3 21 0.5692851721697004 0 1503.0 0.5692851721697004 1
gene  3 132 402 0.6092110919754434 0 1749.0 0.6092110919754434 1
gene  3 402 77 -1.6856271033601553 0 1750.0 -1.6856271033601553 1
gene  1 262 162 1.9634127227503597 0 1794.0 1.9634127227503597 1
genomeend 17
/* Organism # 018 Fitness:  0.000 Error:  0.000                      */
genomestart  18
trait 1 0.0 0.0 0.6570118649152256 0.0 0.08139246229573216 0.0 0.0 0.1472234544084979 
trait 2 0.0 0.0 0.0 0.9681674779715694 0.8007847726066984 0.0 0.45856504130002207 0.8005652713232411 
trait 3 1.0586037523159908 0.7311552394503794 0.0 0.2746021049012679 0.9745220175125502 0.0 0.0 0.0 
node 1 1 1 1
node 2 1 1 1
node 3 1 1 3
node 4 1 0 2
node 6 3 0 0
node 21 1 0 0
node 34 1 0 0
node 77 1 0 0
node 132 2 0 0
node 135 2 0 0
node 162 1 0 0
node 195 1 0 0
node 262 1 0 0
node 402 1 0 0
gene  1 1 4 9.174283476230102 0 1.0 9.174283476230102 1
gene  1 2 4 4.293174920995823 0 2.0 4.293174920995823 1
gene  1 3 4 0.4759335763011141 0 3.0 0.4759335763011141 1
gene  2 2 6 -3.049405258528442 0 6.0 -3.049405258528442 1
gene  2 6 4 0.8349918833762443 0 7.0 0.8349918833762443 1
gene  2 3 6 -2.672818286236896 0 12.0 -2.672818286236896 1
gene  3 1 6 0.7475100322352402 0 18.0 0.7475100322352402 1
gene  1 1 21 5.688040231346949 0 58.0 5.688040231346949 1
gene  1 21 4 4.164239208709025 0 59.0 4.164239208709025 1
gene  1 1 34 -1.290407704216693 0 116.0 -1.290407704216693 0
gene  1 34 4 -0.4036306789079457 0 117.0 -0.4036306789079457 1
gene  1 34 21 -2.481959900735616 0 220.0 -2.481959900735616 1
gene  1 2 77 1.5195664202553205 0 370.0 1.5195664202553205 1
gene  1 77 4 -3.0952073726728804 0 371.0 -3.0952073726728804 1
gene  2 1 77 3.168255585389767 0 574.0 3.168255585389767 1
gene  1 34 132 -2.9271368866484497 0 632.0 -2.9271368866484497 1
gene  1 132 4 -2.718602497639294 0 633.0 -2.718602497639294 1
gene  1 2 135 -3.285429186116361 0 643.0 -3.285429186116361 1
gene  2 135 6 1.2040988844904428 0 644.0 1.2040988844904428 1
gene  3 132 77 -0.17569954354392436 0 739.0 -0.17569954354392436 0
gene  1 1 162 1.520429260682326 0 753.0 1.520429260682326 1
gene  1 162 4 -2.1562619682393045 0 754.0 -2.1562619682393045 1
gene  2 135 77 1.8840352003192904 0 767.0 1.8840352003192904 1
gene  2 21 132 1.6152702195863715 0 800.0 1.6152702195863715 1
gene  1 162 34 -0.9306325249756244 0 839.0 -0.9306325249756244 1
gene  2 3 77 -4.128804790584139 0 859.0 -4.128804790584139 1
gene  1 135 195 -11.114160749353807 0 904.0 -11.114160749353807 1
gene  2 195 6 4.71720968789085 0 905.0 4.71720968789085 1
gene  3 6 21 5.239196748494977 0 976.0 5.239196748494977 1
gene  2 162 77 -4.534995630494501 0 1105.0 -4.534995630494501 1
gene  1 1 262 -1.6235178293885018 0 1182.0 -1.6235178293885018 1
gene  1 262 34 0.46615073109945127 0 1183.0 0.46615073109945127 1
gene  1 135 162 0.502509638706804 0 1355.0 0.502509638706804 1
gene  2 3 21 -0.9291574198817119 0 1503.0 -0.9291574198817119 1
gene  3 132 402 -1.0687236500700896 0 1749.0 -1.0687236500700896 1
gene  3 402 77 2.8179424701520697 0 1750.0 2.8179424701520697 1
gene  1 262 162 0.5985011963138331 0 1794.0 0.5985011963138331 1
genomeend 18
/* Organism # 019 Fitness:  0.000 Error:  0.000                      */
genomestart  19
trait 1 0.0 0.0 0.6570118649152256 0.0 0.08139246229573216 0.0 0.0 0.1472234544084979 
trait 2 0.0 0.0 0.0 0.9681674779715694 0.8007847726066984 0.0 0.45856504130002207 0.8005652713232411 
trait 3 1.0586037523159908 0.7311552394503794 0.0 0.2746021049012679 0.9745220175125502 0.0 0.0 0.0 
node 1 1 1 1
node 2 1 1 1
node 3 1 1 3
node 4 1 0 2
node 6 3 0 0
node 21 1 0 0
node 34 1 0 0
node 77 1 0 0
node 132 2 0 0
node 135 2 0 0
node 162 1 0 0
node 195 1 0 0
node 262 2 0 0
node 402 1 0 0
gene  1 1 4 10.701162312450819 0 1.0 10.701162312450819 1
gene  1 2 4 3.4637370397997875 0 2.0 3.4637370397997875 1
gene  1 3 4 2.3178367607478574 0 3.0 2.3178367607478574 1
gene  2 2 6 -1.8375091106215464 0 6.0 -1.8375091106215464 1
gene  2 6 4 2.000193227235815 0 7.0 2.000193227235815 1
gene  2 3 6 -1.6870847942607818 0 12.0 -1.6870847942607818 1
gene  3 1 6 1.0538597071516689 0 18.0 1.0538597071516689 1
gene  1 1 21 2.4169524742815396 0 58.0 2.4169524742815396 1
gene  1 21 4 4.081734958300646 0 59.0 4.081734958300646 1
gene  1 1 34 1.8167153262148792 0 116.0 1.8167153262148792 0
gene  1 34 4 -1.093840642638249 0 117.0 -1.093840642638249 1
gene  1 34 21 -0.5215131057241005 0 220.0 -0.5215131057241005 1
gene  1 2 77 -0.788400854095568 0 370.0 -0.788400854095568 1
gene  1 77 4 -2.4492996468553843 0 371.0 -2.4492996468553843 1
gene  2 1 77 4.32244281631943 0 574.0 4.32244281631943 1
gene  1 34 132 -4.91404355899226 0 632.0 -4.91404355899226 1
gene  1 132 4 -1.952416520075799 0 633.0 -1.952416520075799 1
gene  1 2 135 -3.250555328116686 0 643.0 -3.250555328116686 1
gene  2 135 6 0.28115868795078214 0 644.0 0.28115868795078214 1
gene  3 132 77 3.734209769553038 0 739.0 3.734209769553038 0
gene  1 1 162 2.738156210536783 0 753.0 2.738156210536783 1
gene  1 162 4 -2.3091973710115195 0 754.0 -2.3091973710115195 1
gene  2 135 77 2.65743078315586 0 767.0 2.65743078315586 1
gene  2 21 132 1.802673817408684 0 800.0 1.802673817408684 1
gene  1 162 34 -1.952493716371638 0 839.0 -1.952493716371638 1
gene  2 3 77 0.6910685256198275 0 859.0 0.6910685256198275 1
gene  1 135 195 -13.402780934036414 0 904.0 -13.402780934036414 1
gene  2 195 6 6.276870409838487 0 905.0 6.276870409838487 1
gene  3 6 21 5.745823740265305 0 976.0 5.745823740265305 1
gene  2 162 77 -2.8033332950935153 0 1105.0 -2.8033332950935153 1
gene  1 1 262 -3.1490525152066637 0 1182.0 -3.1490525152066637 1
gene  1 262 34 -0.03607124374220705 0 1183.0 -0.03607124374220705 1
gene  1 135 162 0.45972326304785766 0 1355.0 0.45972326304785766 1
gene  2 3 21 1.1293574771327173 0 1503.0 1.1293574771327173 1
gene  3 132 402 -1.2734125566263303 0 1749.0 -1.2734125566263303 1
gene  3 402 77 0.08185655002253678 0 1750.0 0.08185655002253678 1
gene  1 262 162 9.732290003410476 0 1794.0 9.732290003410476 1
genomeend 19
/*-------------------------------------------------------------------*/
/* Species # 024         : (size= 003) (AvfFit= 4.000) (Age= 88.000)  */
/*-------------------------------------------------------------------*/
/* Organism # 020 Fitness:  0.000 Error:  0.000                      */
genomestart  20
trait 1 0.05 0.1439540778500516 0.006532761334652526 0.29323236886438164 0.0 0.3380664636754179 0.017488660349417873 0.09711632232723681 
trait 2 0.2 0.0 0.0 0.0 0.0053203913747962815 0.0 0.0 0.002286802585269549 
trait 3 0.812502756775653 0.06684498938521456 0.4109916575618887 0.16962815122917368 0.044500451979387304 0.3056402349512053 0.0 0.3307906395382301 
node 1 2 1 1
node 2 1 1 1
node 3 2 1 3
node 4 1 0 2
node 6 1 0 0
node 21 1 0 0
node 37 1 0 0
node 125 1 0 0
node 133 1 0 0
node 172 1 0 0
node 203 2 0 0
node 253 1 0 0
gene  1 1 4 4.596389636113643 0 1.0 4.596389636113643 1
gene  1 2 4 -3.9054135283916267 0 2.0 -3.9054135283916267 1
gene  1 3 4 -1.0545983204003173 0 3.0 -1.0545983204003173 1
gene  2 2 6 -0.9148042306568205 0 6.0 -0.9148042306568205 1
gene  1 6 4 2.068663106006769 0 7.0 2.068663106006769 1
gene  3 3 6 -0.35039962961637117 0 12.0 -0.35039962961637117 1
gene  2 1 6 -6.132874099036295 0 18.0 -6.132874099036295 1
gene  1 1 21 -1.4796064962220177 0 58.0 -1.4796064962220177 0
gene  1 21 4 -1.2966153437164396 0 59.0 -1.2966153437164396 1
gene  3 2 21 -6.356644868021401 0 114.0 -6.356644868021401 1
gene  1 1 37 -0.4072615594644373 0 134.0 -0.4072615594644373 1
gene  2 37 4 0.3859164286414336 0 135.0 0.3859164286414336 1
gene  1 2 37 2.2450036450553053 0 235.0 2.2450036450553053 1
gene  3 37 6 1.4400413926262665 0 303.0 1.4400413926262665 0
gene  2 3 37 4.456472781060741 0 342.0 4.456472781060741 1
gene  1 37 21 3.3034495548921994 0 526.0 3.3034495548921994 1
gene  2 21 6 2.9924609803837674 0 565.0 2.9924609803837674 1
gene  3 37 125 3.082483986278406 0 595.0 3.082483986278406 0
gene  3 125 6 -4.958076118335159 0 596.0 -4.958076118335159 1
gene  3 37 133 -6.100164635371922 0 638.0 -6.100164635371922 1
gene  3 133 125 -14.416062340729585 0 639.0 -14.416062340729585 1
gene  2 2 125 3.8066379053114288 0 734.0 3.8066379053114288 1
gene  3 133 4 -4.177534466417073 0 768.0 -4.177534466417073 1
gene  3 125 4 -4.590227329531298 0 788.0 -4.590227329531298 1
gene  2 2 172 -1.1130805140657993 0 803.0 -1.1130805140657993 1
gene  2 172 6 0.3530003237533259 0 804.0 0.3530003237533259 1
gene  2 2 203 3.717954987832924 0 937.0 3.717954987832924 1
gene  2 203 172 -0.19426704667395073 0 938.0 -0.19426704667395073 1
gene  2 1 172 -1.181341622316125 0 1114.0 -1.181341622316125 1
gene  1 1 253 -1.0290664349092573 0 1135.0 -1.0290664349092573 1
gene  1 253 21 1.2484437997555886 0 1136.0 1.2484437997555886 1
gene  3 2 133 -2.2997766849320893 0 1167.0 -2.2997766849320893 1
gene  1 172 125 7.578649835507575 0 1796.0 7.578649835507575 1
genomeend 20
/* Organism # 021 Fitness:  0.000 Error:  0.000                      */
genomestart  21
trait 1 0.05 0.1439540778500516 0.006532761334652526 0.29323236886438164 0.0 0.3380664636754179 0.017488660349417873 0.09711632232723681 
trait 2 0.2 0.0 0.0 0.0 0.0053203913747962815 0.0 0.0 0.002286802585269549 
trait 3 0.812502756775653 0.06684498938521456 0.4109916575618887 0.16962815122917368 0.044500451979387304 0.3056402349512053 0.0 0.3307906395382301 
node 1 2 1 1
node 2 1 1 1
node 3 2 1 3
node 4 1 0 2
node 6 1 0 0
node 21 1 0 0
node 37 1 0 0
node 125 1 0 0
node 133 1 0 0
node 172 1 0 0
node 203 3 0 0
node 253 1 0 0
gene  1 1 4 1.3758591313292228 0 1.0 1.3758591313292228 1
gene  1 2 4 -4.454274268279313 0 2.0 -4.454274268279313 0
gene  1 3 4 -0.28830510304473345 0 3.0 -0.28830510304473345 1
gene  2 2 6 5.733577932849348 0 6.0 5.733577932849348 1
gene  1 6 4 -0.3200362685156892 0 7.0 -0.3200362685156892 1
gene  3 3 6 -3.6122431316033308 0 12.0 -3.6122431316033308 1
gene  2 1 6 -4.973650266906565 0 18.0 -4.973650266906565 1
gene  1 1 21 4.517346980778534 0 58.0 4.517346980778534 0
gene  1 21 4 -2.7055259160780567 0 59.0 -2.7055259160780567 1
gene  3 2 21 -5.014914279588738 0 114.0 -5.014914279588738 1
gene  1 1 37 -2.7232188711455994 0 134.0 -2.7232188711455994 1
gene  2 37 4 -1.0249607266884269 0 135.0 -1.0249607266884269 1
gene  1 2 37 -0.15178914554415512 0 235.0 -0.15178914554415512 1
gene  3 37 6 2.381464502890222 0 303.0 2.381464502890222 0
gene  2 3 37 4.221215826752119 0 342.0 4.221215826752119 1
gene  1 37 21 2.54961554946898 0 526.0 2.54961554946898 1
gene  2 21 6 3.350818537538159 0 565.0 3.350818537538159 1
gene  3 37 125 0.5445619385395251 0 595.0 0.5445619385395251 0
gene  3 125 6 -6.887543385773192 0 596.0 -6.887543385773192 1
gene  3 37 133 -3.1794003560817172 0 638.0 -3.1794003560817172 1
gene  3 133 125 -15.488201900993074 0 639.0 -15.488201900993074 1
gene  2 2 125 3.4265617887499284 0 734.0 3.4265617887499284 1
gene  3 133 4 -2.106697474827679 0 768.0 -2.106697474827679 1
gene  3 125 4 -5.226332107913361 0 788.0 -5.226332107913361 1
gene  2 2 172 0.586690806434108 0 803.0 0.586690806434108 1
gene  2 172 6 2.870846057567685 0 804.0 2.870846057567685 1
gene  2 2 203 2.616191895455743 0 937.0 2.616191895455743 1
gene  2 203 172 -0.9697778895478013 0 938.0 -0.9697778895478013 1
gene  2 1 172 0.07737845512984554 0 1114.0 0.07737845512984554 1
gene  1 1 253 -1.3467806829526188 0 1135.0 -1.3467806829526188 1
gene  1 253 21 -1.988526549012089 0 1136.0 -1.988526549012089 1
gene  3 2 133 -8.534280179039522 0 1167.0 -8.534280179039522 1
gene  1 172 125 1.4643856512663471 0 1796.0 1.4643856512663471 1
genomeend 21
/* Organism # 022 Fitness:  0.000 Error:  0.000                      */
genomestart  22
trait 1 0.05 0.1439540778500516 0.006532761334652526 0.29323236886438164 0.0 0.3380664636754179 0.017488660349417873 0.09711632232723681 
trait 2 0.2 0.0 0.0 0.0 0.0053203913747962815 0.0 0.0 0.002286802585269549 
trait 3 0.812502756775653 0.06684498938521456 0.4109916575618887 0.16962815122917368 0.044500451979387304 0.3056402349512053 0.0 0.3307906395382301 
node 1 2 1 1
node 2 1 1 1
node 3 2 1 3
node 4 1 0 2
node 6 1 0 0
node 21 1 0 0
node 37 1 0 0
node 125 1 0 0
node 133 1 0 0
node 172 1 0 0
node 203 1 0 0
node 253 1 0 0
gene  1 1 4 4.653739445322252 0 1.0 4.653739445322252 0
gene  1 2 4 -5.762606485091502 0 2.0 -5.762606485091502 0
gene  1 3 4 -0.14784194832900222 0 3.0 -0.14784194832900222 1
gene  2 2 6 3.924042721348369 0 6.0 3.924042721348369 0
gene  1 6 4 -1.2221218041148267 0 7.0 -1.2221218041148267 1
gene  3 3 6 -0.6943673340796315 0 12.0 -0.6943673340796315 1
gene  2 1 6 -3.2144695186445444 0 18.0 -3.2144695186445444 1
gene  1 1 21 5.131151834333153 0 58.0 5.131151834333153 1
gene  1 21 4 0.05848689849648503 0 59.0 0.05848689849648503 1
gene  3 2 21 -4.449894833304584 0 114.0 -4.449894833304584 1
gene  1 1 37 0.7873110457581669 0 134.0 0.7873110457581669 1
gene  2 37 4 -1.274509573319799 0 135.0 -1.274509573319799 1
gene  1 2 37 0.7918176504162442 0 235.0 0.7918176504162442 1
gene  3 37 6 3.328254002033974 0 303.0 3.328254002033974 0
gene  2 3 37 3.5744093595368005 0 342.0 3.5744093595368005 1
gene  1 37 21 1.45653456223114 0 526.0 1.45653456223114 1
gene  2 21 6 4.034654420827187 0 565.0 4.034654420827187 1
gene  3 37 125 3.5671105743024074 0 595.0 3.5671105743024074 0
gene  3 125 6 -5.354903031129595 0 596.0 -5.354903031129595 1
gene  3 37 133 -4.505199853965333 0 638.0 -4.505199853965333 1
gene  3 133 125 -12.948522844898871 0 639.0 -12.948522844898871 1
gene  2 2 125 2.796580984597004 0 734.0 2.796580984597004 1
gene  3 133 4 -1.1584684895583308 0 768.0 -1.1584684895583308 1
gene  3 125 4 -5.65220581031384 0 788.0 -5.65220581031384 1
gene  2 2 172 -0.6572635086946612 0 803.0 -0.6572635086946612 1
gene  2 172 6 2.2786105950948623 0 804.0 2.2786105950948623 1
gene  2 2 203 1.5114725533966693 0 937.0 1.5114725533966693 1
gene  2 203 172 0.6049962504773936 0 938.0 0.6049962504773936 1
gene  2 1 172 -1.139693309146383 0 1114.0 -1.139693309146383 1
gene  1 1 253 -3.9741547864679894 0 1135.0 -3.9741547864679894 1
gene  1 253 21 0.07318200638192801 0 1136.0 0.07318200638192801 1
gene  3 2 133 -6.936815244968147 0 1167.0 -6.936815244968147 1
gene  1 172 125 8.406405228634817 0 1796.0 8.406405228634817 1
genomeend 22
/*-------------------------------------------------------------------*/
/* Species # 026         : (size= 003) (AvfFit= 5.286) (Age= 87.000)  */
/*-------------------------------------------------------------------*/
/* Organism # 023 Fitness:  0.000 Error:  0.000                      */
genomestart  23
trait 1 1.0376159115393067 0.0 0.0 0.0 0.0 0.0 0.2602828700263532 0.0 
trait 2 0.2 0.0 0.0 0.0 0.0 0.0 0.0 0.0 
trait 3 0.9526256088116624 0.26737995754085825 0.18020545035522995 0.6960892845921767 0.0 0.0 0.0 0.0 
node 1 3 1 1
node 2 1 1 1
node 3 1 1 3
node 4 2 0 2
node 6 1 0 0
node 14 1 0 0
node 22 1 0 0
node 28 3 0 0
node 42 2 0 0
node 244 1 0 0
node 351 1 0 0
node 382 1 0 0
gene  1 1 4 -0.32343056970662065 0 1.0 -0.32343056970662065 1
gene  2 2 4 -1.1215616020853103 0 2.0 -1.1215616020853103 1
gene  2 3 4 -7.175893929601825 0 3.0 -7.175893929601825 1
gene  2 2 6 4.156494637254951 0 6.0 4.156494637254951 1
gene  2 6 4 12.775462051180266 0 7.0 12.775462051180266 1
gene  2 3 6 5.232166689331223 0 12.0 5.232166689331223 1
gene  2 1 6 -4.966714681441023 0 15.0 -4.966714681441023 1
gene  1 1 14 9.254022613128669 0 33.0 9.254022613128669 1
gene  1 14 4 2.806422348118464 0 34.0 2.806422348118464 1
gene  3 14 6 1.9775229366994327 0 51.0 1.9775229366994327 1
gene  2 2 22 1.8000169821443552 0 62.0 1.8000169821443552 1
gene  2 22 4 -1.8469449813875953 0 63.0 -1.8469449813875953 1
gene  2 2 28 -0.466060527505578 0 82.0 -0.466060527505578 1
gene  3 28 6 1.5863126641980336 0 83.0 1.5863126641980336 0
gene  3 22 14 2.711577473575658 0 137.0 2.711577473575658 1
gene  3 2 42 -6.62488284781482 0 159.0 -6.62488284781482 1
gene  2 42 22 0.10339137835633894 0 160.0 0.10339137835633894 1
gene  3 28 4 4.17964441821624 0 321.0 4.17964441821624 1
gene  3 2 14 4.061112227868732 0 634.0 4.061112227868732 1
gene  1 22 28 -8.152609772448674 0 668.0 -8.152609772448674 1
gene  1 3 28 2.214341736455533 0 696.0 2.214341736455533 1
gene  3 1 22 -3.1773257329521765 0 799.0 -3.1773257329521765 1
gene  3 14 28 4.7057409433379425 0 810.0 4.7057409433379425 1
gene  1 1 28 0.9491883636664706 0 1022.0 0.9491883636664706 1
gene  2 28 244 -3.6434487918906524 0 1086.0 -3.6434487918906524 1
gene  3 244 6 1.8622712217507131 0 1087.0 1.8622712217507131 1
gene  3 2 244 -5.61663746971328 0 1190.0 -5.61663746971328 1
gene  3 244 351 1.2377931774485273 0 1523.0 1.2377931774485273 1
gene  3 351 6 0.7397739557672023 0 1524.0 0.7397739557672023 1
gene  2 3 42 0.24156660008006425 0 1553.0 0.24156660008006425 1
gene  3 244 382 0.1800083155478821 0 1670.0 0.1800083155478821 1
gene  3 382 6 0.03733021674083126 0 1671.0 0.03733021674083126 1
genomeend 23
/* Organism # 024 Fitness:  0.000 Error:  0.000                      */
genomestart  24
trait 1 1.0376159115393067 0.0 0.0 0.0 0.0 0.0 0.2602828700263532 0.0 
trait 2 0.2 0.0 0.0 0.0 0.0 0.0 0.0 0.0 
trait 3 0.9526256088116624 0.26737995754085825 0.18020545035522995 0.6960892845921767 0.0 0.0 0.0 0.0 
node 1 3 1 1
node 2 1 1 1
node 3 1 1 3
node 4 2 0 2
node 6 1 0 0
node 14 1 0 0
node 22 1 0 0
node 28 3 0 0
node 42 2 0 0
node 244 1 0 0
node 351 1 0 0
node 382 1 0 0
gene  1 1 4 2.938764931449314 0 1.0 2.938764931449314 1
gene  2 2 4 -2.8406943710859913 0 2.0 -2.8406943710859913 1
gene  2 3 4 -4.973840838913914 0 3.0 -4.973840838913914 1
gene  2 2 6 2.792905577401136 0 6.0 2.792905577401136 1
gene  2 6 4 11.091150127147868 0 7.0 11.091150127147868 1
gene  2 3 6 6.208183671432073 0 12.0 6.208183671432073 1
gene  2 1 6 -1.2283802385576843 0 15.0 -1.2283802385576843 1
gene  1 1 14 7.683705853055665 0 33.0 7.683705853055665 1
gene  1 14 4 2.655297164512607 0 34.0 2.655297164512607 1
gene  3 14 6 1.7555683999878 0 51.0 1.7555683999878 1
gene  2 2 22 -2.4164210276422224 0 62.0 -2.4164210276422224 1
gene  2 22 4 1.0217285249885348 0 63.0 1.0217285249885348 1
gene  2 2 28 2.549388536962175 0 82.0 2.549388536962175 1
gene  3 28 6 -0.8071171292595183 0 83.0 -0.8071171292595183 0
gene  3 22 14 5.075406601972192 0 137.0 5.075406601972192 1
gene  3 2 42 -5.353730905799649 0 159.0 -5.353730905799649 1
gene  2 42 22 3.749935098816893 0 160.0 3.749935098816893 1
gene  3 28 4 1.2265021026024971 0 321.0 1.2265021026024971 1
gene  3 2 14 4.574916105988043 0 634.0 4.574916105988043 1
gene  1 22 28 -5.496230940190594 0 668.0 -5.496230940190594 1
gene  1 3 28 2.0716089794378956 0 696.0 2.0716089794378956 1
gene  3 1 22 -0.11225881633007173 0 799.0 -0.11225881633007173 1
gene  3 14 28 4.139222237969396 0 810.0 4.139222237969396 1
gene  1 1 28 4.043870717262935 0 1022.0 4.043870717262935 1
gene  2 28 244 -2.1199459112913743 0 1086.0 -2.1199459112913743 1
gene  3 244 6 -0.44842167096297936 0 1087.0 -0.44842167096297936 1
gene  3 2 244 -5.243246269785935 0 1190.0 -5.243246269785935 1
gene  3 244 351 1.9337840305112866 0 1523.0 1.9337840305112866 1
gene  3 351 6 0.39437963900733175 0 1524.0 0.39437963900733175 1
gene  2 3 42 0.10657759057191546 0 1553.0 0.10657759057191546 1
gene  3 244 382 0.8252879405135118 0 1670.0 0.8252879405135118 1
gene  3 382 6 -0.7814262906242031 0 1671.0 -0.7814262906242031 1
genomeend 24
/* Organism # 025 Fitness:  0.000 Error:  0.000                      */
genomestart  25
trait 1 1.0376159115393067 0.0 0.0 0.21547452797611533 0.0 0.0 0.2602828700263532 0.0 
trait 2 0.2 0.0 0.0 0.0 0.0 0.0 0.0 0.0 
trait 3 0.9526256088116624 0.26737995754085825 0.18020545035522995 0.6960892845921767 0.0 0.0 0.0 0.0 
node 1 3 1 1
node 2 1 1 1
node 3 1 1 3
node 4 2 0 2
node 6 1 0 0
node 14 1 0 0
node 22 1 0 0
node 28 3 0 0
node 42 2 0 0
node 244 1 0 0
node 351 1 0 0
node 382 1 0 0
gene  1 1 4 1.5672561712094515 0 1.0 1.5672561712094515 1
gene  2 2 4 -2.596506426222555 0 2.0 -2.596506426222555 1
gene  2 3 4 -7.480003391092152 0 3.0 -7.480003391092152 1
gene  2 2 6 3.2663264600780755 0 6.0 3.2663264600780755 1
gene  2 6 4 9.498742328346692 0 7.0 9.498742328346692 1
gene  2 3 6 3.8933924573848304 0 12.0 3.8933924573848304 1
gene  2 1 6 -2.727598091451825 0 15.0 -2.727598091451825 1
gene  1 1 14 7.665531190418816 0 33.0 7.665531190418816 1
gene  1 14 4 -0.5945163266980574 0 34.0 -0.5945163266980574 1
gene  3 14 6 2.5311980189422076 0 51.0 2.5311980189422076 1
gene  2 2 22 -0.669646336299413 0 62.0 -0.669646336299413 1
gene  2 22 4 0.9124212866657089 0 63.0 0.9124212866657089 1
gene  2 2 28 1.8546468124677695 0 82.0 1.8546468124677695 1
gene  3 28 6 0.7146607923809105 0 83.0 0.7146607923809105 0
gene  3 22 14 4.841338824491009 0 137.0 4.841338824491009 1
gene  3 2 42 -4.819538114084416 0 159.0 -4.819538114084416 1
gene  2 42 22 3.542426486177115 0 160.0 3.542426486177115 1
gene  3 28 4 4.808477700404938 0 321.0 4.808477700404938 1
gene  3 2 14 2.370600130007398 0 634.0 2.370600130007398 1
gene  1 22 28 0.29192541699314345 0 668.0 0.29192541699314345 1
gene  1 3 28 3.2973653486183343 0 696.0 3.2973653486183343 1
gene  3 1 22 -1.9928580873918935 0 799.0 -1.9928580873918935 1
gene  3 14 28 3.7303074438936177 0 810.0 3.7303074438936177 1
gene  1 1 28 1.4727903348893372 0 1022.0 1.4727903348893372 1
gene  2 28 244 -6.227062263217517 0 1086.0 -6.227062263217517 1
gene  3 244 6 -1.3382250088878518 0 1087.0 -1.3382250088878518 1
gene  3 2 244 -3.191524068022554 0 1190.0 -3.191524068022554 1
gene  3 244 351 -1.0129857554691344 0 1523.0 -1.0129857554691344 1
gene  3 351 6 3.1436989612657973 0 1524.0 3.1436989612657973 1
gene  2 3 42 -2.402421232826055 0 1553.0 -2.402421232826055 1
gene  3 244 382 0.14551608258071225 0 1670.0 0.14551608258071225 1
gene  3 382 6 -9.355217389339893 0 1671.0 -9.355217389339893 1
genomeend 25
/*-------------------------------------------------------------------*/
/* Species # 030         : (size= 004) (AvfFit= 6.400) (Age= 85.000)  */
/*-------------------------------------------------------------------*/
/* Organism # 026 Fitness:  0.000 Error:  0.000                      */
genomestart  26
trait 1 0.0 0.3838532015892512 0.0 0.0 0.0 0.0 0.0 0.35588037967160835 
trait 2 0.08246500615901292 0.0 0.8751974095430065 0.0 0.0 0.3694727960852199 0.0 0.0 
trait 3 0.7276029293141648 0.0 0.22270590689673253 0.3007598781381503 0.0 0.0 0.19840972631147002 0.1275748879813946 
node 1 1 1 1
node 2 1 1 1
node 3 3 1 3
node 4 2 0 2
node 6 1 0 0
node 11 3 0 0
node 46 3 0 0
node 49 3 0 0
node 342 1 0 0
gene  2 1 4 16.58362445500426 0 1.0 16.58362445500426 1
gene  3 2 4 -14.54529450950121 0 2.0 -14.54529450950121 1
gene  3 3 4 -1.7437598503647056 0 3.0 -1.7437598503647056 1
gene  2 2 6 5.838812397698892 0 6.0 5.838812397698892 1
gene  2 6 4 -7.755711857351361 0 7.0 -7.755711857351361 1
gene  2 3 6 -5.860037402555482 0 12.0 -5.860037402555482 1
gene  1 1 11 3.327856332034674 0 23.0 3.327856332034674 1
gene  1 11 4 -3.2479235085699427 0 24.0 -3.2479235085699427 1
gene  1 2 11 -1.90995697803523 0 138.0 -1.90995697803523 1
gene  3 3 11 7.539219721044142 0 182.0 7.539219721044142 1
gene  3 1 46 10.068951429375655 0 188.0 10.068951429375655 0
gene  1 46 4 -0.6894180702089634 0 189.0 -0.6894180702089634 1
gene  2 6 49 -2.0385720681075936 0 204.0 -2.0385720681075936 1
gene  2 49 4 -2.7799166639077653 0 205.0 -2.7799166639077653 1
gene  3 46 49 -0.48402631326824014 0 349.0 -0.48402631326824014 1
gene  3 49 11 3.0423831278644076 0 405.0 3.0423831278644076 1
gene  3 6 46 6.475954725628249 0 557.0 6.475954725628249 1
gene  2 46 11 -1.595790927866144 0 667.0 -1.595790927866144 1
gene  2 3 46 0.6283572266496253 0 1346.0 0.6283572266496253 1
gene  2 2 49 -0.5517444414058257 0 1409.0 -0.5517444414058257 1
gene  3 1 342 -5.2724590841762815 0 1497.0 -5.2724590841762815 1
gene  3 342 46 1.7983721369631827 0 1498.0 1.7983721369631827 1
gene  3 342 49 -0.6139983249349484 0 1633.0 -0.6139983249349484 1
genomeend 26
/* Organism # 027 Fitness:  0.000 Error:  0.000                      */
genomestart  27
trait 1 0.0 0.3838532015892512 0.0 0.0 0.0 0.0 0.0 0.35588037967160835 
trait 2 0.08246500615901292 0.0 0.8751974095430065 0.0 0.0 0.3694727960852199 0.0 0.0 
trait 3 0.7276029293141648 0.0 0.22270590689673253 0.3007598781381503 0.0 0.0 0.19840972631147002 0.1275748879813946 
node 1 1 1 1
node 2 1 1 1
node 3 3 1 3
node 4 2 0 2
node 6 1 0 0
node 11 3 0 0
node 46 3 0 0
node 49 3 0 0
node 342 1 0 0
gene  2 1 4 15.019968075223998 0 1.0 15.019968075223998 1
gene  3 2 4 -14.65467946061898 0 2.0 -14.65467946061898 1
gene  3 3 4 -5.24908855632331 0 3.0 -5.24908855632331 1
gene  2 2 6 1.1251736834137067 0 6.0 1.1251736834137067 1
gene  2 6 4 -1.0492685884266288 0 7.0 -1.0492685884266288 1
gene  2 3 6 -5.099182249148357 0 12.0 -5.099182249148357 1
gene  1 1 11 2.248774948315218 0 23.0 2.248774948315218 1
gene  1 11 4 -2.9533398887854676 0 24.0 -2.9533398887854676 1
gene  1 2 11 -1.8836846759485324 0 138.0 -1.8836846759485324 1
gene  3 3 11 9.059857505302704 0 182.0 9.059857505302704 1
gene  3 1 46 9.098897748468001 0 188.0 9.098897748468001 0
gene  1 46 4 0.9942616042293593 0 189.0 0.9942616042293593 1
gene  2 6 49 -0.4214752924907275 0 204.0 -0.4214752924907275 1
gene  2 49 4 -4.3225300632184736 0 205.0 -4.3225300632184736 1
gene  3 46 49 -10.146847238401083 0 349.0 -10.146847238401083 1
gene  3 49 11 -0.20987608142498115 0 405.0 -0.20987608142498115 1
gene  3 6 46 5.243679472263766 0 557.0 5.243679472263766 1
gene  2 46 11 -7.091764767769 0 667.0 -7.091764767769 1
gene  2 3 46 2.3470495653022816 0 1346.0 2.3470495653022816 1
gene  2 2 49 -1.2725235880275392 0 1409.0 -1.2725235880275392 1
gene  3 1 342 -5.369011118654781 0 1497.0 -5.369011118654781 1
gene  3 342 46 1.3376550408131869 0 1498.0 1.3376550408131869 1
gene  3 342 49 -4.004038729993024 0 1633.0 -4.004038729993024 1
genomeend 27
/* Organism # 028 Fitness:  0.000 Error:  0.000                      */
genomestart  28
trait 1 0.0 0.3838532015892512 0.0 0.0 0.0 0.0 0.0 0.35588037967160835 
trait 2 0.08246500615901292 0.0 0.8751974095430065 0.0 0.0 0.3694727960852199 0.0 0.0 
trait 3 0.7276029293141648 0.0 0.22270590689673253 0.3007598781381503 0.0 0.0 0.19840972631147002 0.1275748879813946 
node 1 1 1 1
node 2 1 1 1
node 3 3 1 3
node 4 2 0 2
node 6 1 0 0
node 11 3 0 0
node 46 3 0 0
node 49 3 0 0
node 342 1 0 0
gene  2 1 4 14.614707519980112 0 1.0 14.614707519980112 1
gene  3 2 4 -17.785624610944737 0 2.0 -17.785624610944737 1
gene  3 3 4 -6.034602958396223 0 3.0 -6.034602958396223 1
gene  2 2 6 1.5942721238106536 0 6.0 1.5942721238106536 1
gene  2 6 4 -6.825097934477979 0 7.0 -6.825097934477979 1
gene  2 3 6 -5.279822702190532 0 12.0 -5.279822702190532 1
gene  1 1 11 4.093809116224146 0 23.0 4.093809116224146 1
gene  1 11 4 -3.6000930929145207 0 24.0 -3.6000930929145207 1
gene  1 2 11 -1.1484513541702368 0 138.0 -1.1484513541702368 1
gene  3 3 11 8.334069414433012 0 182.0 8.334069414433012 1
gene  3 1 46 11.518452529774237 0 188.0 11.518452529774237 0
gene  1 46 4 0.8118562969750143 0 189.0 0.8118562969750143 1
gene  2 6 49 -4.559670859594503 0 204.0 -4.559670859594503 1
gene  2 49 4 -4.4308262932757945 0 205.0 -4.4308262932757945 1
gene  3 46 49 -12.934096493746793 0 349.0 -12.934096493746793 1
gene  3 49 11 3.3287164601832675 0 405.0 3.3287164601832675 1
gene  3 6 46 4.76757735848747 0 557.0 4.76757735848747 1
gene  2 46 11 -5.901058029501581 0 667.0 -5.901058029501581 1
gene  2 3 46 3.0141363114432878 0 1346.0 3.0141363114432878 1
gene  2 2 49 -3.1957124003354878 0 1409.0 -3.1957124003354878 1
gene  3 1 342 -1.7087522508565753 0 1497.0 -1.7087522508565753 1
gene  3 342 46 3.146585302124473 0 1498.0 3.146585302124473 1
gene  3 342 49 -3.6462909240101404 0 1633.0 -3.6462909240101404 1
genomeend 28
/* Organism # 029 Fitness:  0.000 Error:  0.000                      */
genomestart  29
trait 1 0.0 0.3838532015892512 0.0 0.0 0.0 0.0 0.0 0.35588037967160835 
trait 2 0.08246500615901292 0.0 0.8751974095430065 0.0 0.0 0.3694727960852199 0.0 0.0 
trait 3 0.7276029293141648 0.0 0.22270590689673253 0.3007598781381503 0.0 0.0 0.19840972631147002 0.1275748879813946 
node 1 1 1 1
node 2 1 1 1
node 3 3 1 3
node 4 2 0 2
node 6 1 0 0
node 11 3 0 0
node 46 3 0 0
node 49 3 0 0
node 342 1 0 0
gene  2 1 4 14.627819447684532 0 1.0 14.627819447684532 1
gene  3 2 4 -14.557054928653976 0 2.0 -14.557054928653976 1
gene  3 3 4 -5.24908855632331 0 3.0 -5.24908855632331 1
gene  2 2 6 0.23260822362154876 0 6.0 0.23260822362154876 1
gene  2 6 4 -9.942581136350316 0 7.0 -9.942581136350316 1
gene  2 3 6 -7.182178070860974 0 12.0 -7.182178070860974 1
gene  1 1 11 -2.1948810219089867 0 23.0 -2.1948810219089867 1
gene  1 11 4 -3.0865853514834054 0 24.0 -3.0865853514834054 1
gene  1 2 11 0.4398626922039526 0 138.0 0.4398626922039526 1
gene  3 3 11 8.929350961856818 0 182.0 8.929350961856818 1
gene  3 1 46 12.548326459785498 0 188.0 12.548326459785498 0
gene  1 46 4 1.1809259462338482 0 189.0 1.1809259462338482 1
gene  2 6 49 -3.019889139729786 0 204.0 -3.019889139729786 1
gene  2 49 4 -1.0363110339097 0 205.0 -1.0363110339097 1
gene  3 46 49 -11.311281373764023 0 349.0 -11.311281373764023 1
gene  3 49 11 0.6991692595024994 0 405.0 0.6991692595024994 1
gene  3 6 46 2.081239662866108 0 557.0 2.081239662866108 1
gene  2 46 11 -4.502546242429733 0 667.0 -4.502546242429733 1
gene  2 3 46 2.642577395792137 0 1346.0 2.642577395792137 1
gene  2 2 49 -1.7538789118085638 0 1409.0 -1.7538789118085638 1
gene  3 1 342 -5.781230553558988 0 1497.0 -5.781230553558988 1
gene  3 342 46 0.5261614480681898 0 1498.0 0.5261614480681898 1
gene  3 342 49 -2.3144141181077256 0 1633.0 -2.3144141181077256 1
genomeend 29
/*-------------------------------------------------------------------*/
/* Species # 032         : (size= 002) (AvfFit= 4.005) (Age= 81.000)  */
/*-------------------------------------------------------------------*/
/* Organism # 030 Fitness:  0.000 Error:  0.000                      */
genomestart  30
trait 1 1.0012423076799148 0.6373601157782041 0.5081922000377181 0.0 0.8827904381296127 0.0 0.0 0.1913854892107677 
trait 2 0.0 0.07034434713892634 0.0 0.0 0.0 0.0 0.0 0.5168444176687993 
trait 3 0.3 0.0 0.25986216211498103 0.0 0.0 0.0 0.0 0.4059249328981437 
node 1 1 1 1
node 2 1 1 1
node 3 1 1 3
node 4 2 0 2
node 10 3 0 0
node 12 1 0 0
node 60 1 0 0
node 358 1 0 0
gene  1 1 4 -0.9008158242191675 0 1.0 -0.9008158242191675 1
gene  2 2 4 1.4690572635037178 0 2.0 1.4690572635037178 1
gene  3 3 4 5.051191563711857 0 3.0 5.051191563711857 1
gene  3 1 10 -0.3793099525952752 0 16.0 -0.3793099525952752 1
gene  1 10 4 1.9258437155992738 0 17.0 1.9258437155992738 1
gene  3 2 12 -1.9932073356196918 0 28.0 -1.9932073356196918 1
gene  1 12 4 0.4335683805375965 0 29.0 0.4335683805375965 1
gene  2 2 10 4.865055082368175 0 35.0 4.865055082368175 1
gene  1 3 12 -9.032893930364903 0 142.0 -9.032893930364903 1
gene  3 3 10 -2.574141706783803 0 236.0 -2.574141706783803 1
gene  1 1 60 -0.6386712952513889 0 267.0 -0.6386712952513889 1
gene  1 60 4 -1.3978605072767825 0 268.0 -1.3978605072767825 1
gene  2 3 60 -0.6904671787569396 0 328.0 -0.6904671787569396 1
gene  1 2 60 -4.954861681477675 0 434.0 -4.954861681477675 1
gene  1 10 60 -0.6414927735949689 0 448.0 -0.6414927735949689 1
gene  2 10 12 4.818462651854656 0 507.0 4.818462651854656 1
gene  3 12 60 -5.4861126280285095 0 602.0 -5.4861126280285095 1
gene  3 1 12 -1.9410344512270323 0 625.0 -1.9410344512270323 1
gene  3 2 358 1.1430727288089892 0 1551.0 1.1430727288089892 1
gene  3 358 10 -1.7131869376928575 0 1552.0 -1.7131869376928575 1
genomeend 30
/* Organism # 031 Fitness:  0.000 Error:  0.000                      */
genomestart  31
trait 1 1.0012423076799148 0.6373601157782041 0.5081922000377181 0.0 0.8827904381296127 0.0 0.0 0.1913854892107677 
trait 2 0.0 0.07034434713892634 0.0 0.0 0.0 0.0 0.0 0.5168444176687993 
trait 3 0.3 0.0 0.25986216211498103 0.0 0.0 0.0 0.0 0.4059249328981437 
node 1 1 1 1
node 2 1 1 1
node 3 1 1 3
node 4 2 0 2
node 10 3 0 0
node 12 1 0 0
node 60 1 0 0
node 358 1 0 0
gene  1 1 4 -1.0066261873557898 0 1.0 -1.0066261873557898 1
gene  2 2 4 0.7752305441268006 0 2.0 0.7752305441268006 1
gene  3 3 4 4.022315534378363 0 3.0 4.022315534378363 1
gene  3 1 10 0.5015276608304435 0 16.0 0.5015276608304435 1
gene  1 10 4 0.6216935735792856 0 17.0 0.6216935735792856 1
gene  3 2 12 0.09035606630769683 0 28.0 0.09035606630769683 1
gene  1 12 4 0.053874826195100256 0 29.0 0.053874826195100256 1
gene  2 2 10 3.5343578960687663 0 35.0 3.5343578960687663 1
gene  1 3 12 -6.787978303913847 0 142.0 -6.787978303913847 1
gene  3 3 10 0.27742870264538055 0 236.0 0.27742870264538055 1
gene  1 1 60 0.31474812732733937 0 267.0 0.31474812732733937 1
gene  1 60 4 -1.4306045037053412 0 268.0 -1.4306045037053412 1
gene  2 3 60 -0.9874607161129982 0 328.0 -0.9874607161129982 1
gene  1 2 60 0.5886048275533338 0 434.0 0.5886048275533338 1
gene  1 10 60 -2.3760715698212524 0 448.0 -2.3760715698212524 1
gene  2 10 12 1.613966580538423 0 507.0 1.613966580538423 1
gene  3 12 60 -8.373327150984617 0 602.0 -8.373327150984617 1
gene  3 1 12 -1.9410344512270323 0 625.0 -1.9410344512270323 1
gene  3 2 358 0.6658819733754038 0 1551.0 0.6658819733754038 1
gene  3 358 10 -2.176294915137389 0 1552.0 -2.176294915137389 1
genomeend 31
/*-------------------------------------------------------------------*/
/* Species # 041         : (size= 003) (AvfFit= 5.601) (Age= 70.000)  */
/*-------------------------------------------------------------------*/
/* Organism # 032 Fitness:  0.000 Error:  0.000                      */
genomestart  32
trait 1 0.5051537966696478 0.0 0.0 0.5453453608035574 0.0 0.0 0.4685601475540693 0.07361172720424895 
trait 2 0.2 0.0 0.0 0.8150706412939334 0.0 0.0 0.0 0.0 
trait 3 0.3 1.6038651981010519 0.0 0.0 0.796136986194527 0.8054556544114669 0.3240668600568818 0.293824864002901 
node 1 1 1 1
node 2 2 1 1
node 3 2 1 3
node 4 3 0 2
node 6 3 0 0
node 24 1 0 0
gene  2 1 4 6.156478254634393 0 1.0 6.156478254634393 1
gene  2 2 4 8.635115590025142 0 2.0 8.635115590025142 1
gene  3 3 4 -0.5058501913041471 0 3.0 -0.5058501913041471 1
gene  2 2 6 0.4060487121258376 0 6.0 0.4060487121258376 1
gene  2 6 4 -0.07416043634732067 0 7.0 -0.07416043634732067 1
gene  3 3 6 -1.9119198171867007 0 12.0 -1.9119198171867007 1
gene  3 1 6 2.0086892788630117 0 18.0 2.0086892788630117 1
gene  2 1 24 -0.6187251595660257 0 69.0 -0.6187251595660257 1
gene  1 24 4 -0.1298201463331361 0 70.0 -0.1298201463331361 1
gene  1 6 24 0.6621837111176299 0 111.0 0.6621837111176299 1
gene  3 2 24 -2.253065110859535 0 558.0 -2.253065110859535 1
gene  2 3 24 2.7083475074873897 0 965.0 2.7083475074873897 1
genomeend 32
/* Organism # 033 Fitness:  0.000 Error:  0.000                      */
genomestart  33
trait 1 0.5051537966696478 0.0 0.0 0.5453453608035574 0.0 0.0 0.4685601475540693 0.07361172720424895 
trait 2 0.2 0.0 0.0 0.8150706412939334 0.0 0.0 0.0 0.0 
trait 3 0.3 1.6038651981010519 0.0 0.0 0.796136986194527 0.8054556544114669 0.3240668600568818 0.293824864002901 
node 1 1 1 1
node 2 2 1 1
node 3 2 1 3
node 4 3 0 2
node 6 3 0 0
node 24 1 0 0
gene  2 1 4 7.292024050294395 0 1.0 7.292024050294395 1
gene  2 2 4 -2.400245045019439 0 2.0 -2.400245045019439 1
gene  3 3 4 1.2504502648929234 0 3.0 1.2504502648929234 1
gene  2 2 6 -2.211109872824298 0 6.0 -2.211109872824298 1
gene  2 6 4 -1.6877331339068986 0 7.0 -1.6877331339068986 1
gene  3 3 6 1.4467997315231822 0 12.0 1.4467997315231822 1
gene  3 1 6 -0.2803071123161699 0 18.0 -0.2803071123161699 1
gene  2 1 24 2.2601461642430936 0 69.0 2.2601461642430936 1
gene  1 24 4 2.269726963564878 0 70.0 2.269726963564878 1
gene  1 6 24 -1.568892058949225 0 111.0 -1.568892058949225 1
gene  3 2 24 -2.1188933383935646 0 558.0 -2.1188933383935646 1
gene  2 3 24 -0.9965608109761043 0 965.0 -0.9965608109761043 1
genomeend 33
/* Organism # 034 Fitness:  0.000 Error:  0.000                      */
genomestart  34
trait 1 0.5051537966696478 0.0 0.0 0.5453453608035574 0.0 0.0 0.4685601475540693 0.07361172720424895 
trait 2 0.2 0.0 0.0 0.8150706412939334 0.0 0.0 0.0 0.0 
trait 3 0.3 1.6038651981010519 0.0 0.0 0.796136986194527 0.8054556544114669 0.3240668600568818 0.293824864002901 
node 1 1 1 1
node 2 2 1 1
node 3 2 1 3
node 4 3 0 2
node 6 3 0 0
node 24 1 0 0
gene  2 1 4 3.812547216925502 0 1.0 3.812547216925502 1
gene  2 2 4 4.920703801454671 0 2.0 4.920703801454671 1
gene  3 3 4 1.5024953573623112 0 3.0 1.5024953573623112 1
gene  2 2 6 -2.3986972813367258 0 6.0 -2.3986972813367258 1
gene  2 6 4 1.887702825516452 0 7.0 1.887702825516452 1
gene  3 3 6 1.9829984624130121 0 12.0 1.9829984624130121 1
gene  3 1 6 1.6041603212377753 0 18.0 1.6041603212377753 1
gene  2 1 24 -1.2512672240119924 0 69.0 -1.2512672240119924 1
gene  1 24 4 -1.7314473362667928 0 70.0 -1.7314473362667928 1
gene  1 6 24 -4.559041868512395 0 111.0 -4.559041868512395 1
gene  3 2 24 0.5102282283958487 0 558.0 0.5102282283958487 1
gene  2 3 24 0.6495904103123445 0 965.0 0.6495904103123445 1
genomeend 34
/*-------------------------------------------------------------------*/
/* Species # 042         : (size= 006) (AvfFit= 8.571) (Age= 69.000)  */
/*-------------------------------------------------------------------*/
/* Organism # 035 Fitness:  0.000 Error:  0.000                      */
genomestart  35
trait 1 0.1 0.0 0.0 0.15696781845815722 0.0 0.8453140666609601 0.1298031975615207 0.0 
trait 2 1.209407069573864 0.0 0.0 0.0 0.0 0.0 0.8857245454949451 0.0 
trait 3 0.0 0.0 0.0 0.0 0.17800180791754922 0.0 0.0 0.5940969038032904 
node 1 1 1 1
node 2 1 1 1
node 3 3 1 3
node 4 1 0 2
node 6 1 0 0
node 14 1 0 0
node 39 1 0 0
node 48 1 0 0
node 71 1 0 0
node 89 1 0 0
node 100 1 0 0
node 238 1 0 0
node 290 1 0 0
gene  1 1 4 -2.186971438927072 0 1.0 -2.186971438927072 1
gene  2 2 4 -2.724215801165418 0 2.0 -2.724215801165418 1
gene  3 3 4 -15.164191430153487 0 3.0 -15.164191430153487 1
gene  2 2 6 0.4755905901320969 0 6.0 0.4755905901320969 1
gene  2 6 4 1.9524121701517685 0 7.0 1.9524121701517685 1
gene  2 3 6 -1.0247093030329666 0 12.0 -1.0247093030329666 1
gene  3 1 6 -0.8788696334205026 0 15.0 -0.8788696334205026 1
gene  1 1 14 1.2285746168922729 0 33.0 1.2285746168922729 1
gene  1 14 4 17.087742990640237 0 34.0 17.087742990640237 1
gene  2 2 39 -0.3535932247022421 0 146.0 -0.3535932247022421 1
gene  2 39 4 -3.34983454445685 0 147.0 -3.34983454445685 1
gene  3 14 6 0.7685661957539974 0 190.0 0.7685661957539974 1
gene  2 2 48 3.6794897222564464 0 199.0 3.6794897222564464 1
gene  2 48 6 -1.2279741024939739 0 200.0 -1.2279741024939739 1
gene  1 2 14 13.006362716920064 0 210.0 13.006362716920064 1
gene  3 39 48 3.7079013263302745 0 276.0 3.7079013263302745 1
gene  2 2 71 0.7989601791769766 0 323.0 0.7989601791769766 1
gene  2 71 39 -3.9603493409625474 0 324.0 -3.9603493409625474 1
gene  2 48 89 -4.521150585000928 0 435.0 -4.521150585000928 1
gene  2 89 6 2.2228687653761643 0 436.0 2.2228687653761643 1
gene  2 71 100 5.896098066815747 0 485.0 5.896098066815747 1
gene  2 100 39 -1.8549950263446595 0 486.0 -1.8549950263446595 1
gene  2 89 238 -0.5416647152798115 0 1069.0 -0.5416647152798115 1
gene  2 238 6 -4.466689527905112 0 1070.0 -4.466689527905112 1
gene  2 2 290 0.3182200193989279 0 1292.0 0.3182200193989279 1
gene  2 290 71 0.7535013592718143 0 1293.0 0.7535013592718143 1
gene  3 71 89 3.6390044386192724 0 1545.0 3.6390044386192724 1
genomeend 35
/* Organism # 036 Fitness:  0.000 Error:  0.000                      */
genomestart  36
trait 1 0.1 0.0 0.0 0.15696781845815722 0.0 0.8453140666609601 0.1298031975615207 0.0 
trait 2 1.209407069573864 0.0 0.0 0.0 0.0 0.0 0.8857245454949451 0.0 
trait 3 0.0 0.0 0.0 0.0 0.17800180791754922 0.0 0.0 0.5940969038032904 
node 1 1 1 1
node 2 1 1 1
node 3 3 1 3
node 4 1 0 2
node 6 1 0 0
node 14 1 0 0
node 39 1 0 0
node 48 1 0 0
node 71 1 0 0
node 89 1 0 0
node 100 1 0 0
node 238 1 0 0
node 290 1 0 0
gene  1 1 4 -2.537282909766282 0 1.0 -2.537282909766282 1
gene  2 2 4 -1.5855977425957797 0 2.0 -1.5855977425957797 1
gene  3 3 4 -16.801783370155142 0 3.0 -16.801783370155142 1
gene  2 2 6 2.8386274765288997 0 6.0 2.8386274765288997 1
gene  2 6 4 4.406184783893359 0 7.0 4.406184783893359 1
gene  2 3 6 0.7847626169328095 0 12.0 0.7847626169328095 1
gene  3 1 6 -3.1002817960723643 0 15.0 -3.1002817960723643 1
gene  1 1 14 1.683293904324292 0 33.0 1.683293904324292 1
gene  1 14 4 14.884491113725863 0 34.0 14.884491113725863 1
gene  2 2 39 -1.4105093422506019 0 146.0 -1.4105093422506019 1
gene  2 39 4 -4.75963896597627 0 147.0 -4.75963896597627 1
gene  3 14 6 2.7972277887742383 0 190.0 2.7972277887742383 1
gene  2 2 48 3.309159386355698 0 199.0 3.309159386355698 1
gene  2 48 6 -3.458965587015001 0 200.0 -3.458965587015001 1
gene  1 2 14 14.627655484991147 0 210.0 14.627655484991147 1
gene  3 39 48 4.829448150830012 0 276.0 4.829448150830012 1
gene  2 2 71 0.33327019840496497 0 323.0 0.33327019840496497 1
gene  2 71 39 -5.856919835317612 0 324.0 -5.856919835317612 1
gene  2 48 89 -3.3702089529991452 0 435.0 -3.3702089529991452 1
gene  2 89 6 2.7204581733713145 0 436.0 2.7204581733713145 1
gene  2 71 100 6.06850187151962 0 485.0 6.06850187151962 1
gene  2 100 39 -2.417061493242165 0 486.0 -2.417061493242165 1
gene  2 89 238 -0.5416647152798115 0 1069.0 -0.5416647152798115 1
gene  2 238 6 -4.466689527905112 0 1070.0 -4.466689527905112 1
gene  2 2 290 -1.970307297712361 0 1292.0 -1.970307297712361 1
gene  2 290 71 2.6795909179873454 0 1293.0 2.6795909179873454 1
gene  3 71 89 1.7263932276694813 0 1545.0 1.7263932276694813 1
genomeend 36
/* Organism # 037 Fitness:  0.000 Error:  0.000                      */
genomestart  37
trait 1 0.1 0.0 0.0 0.15696781845815722 0.0 0.8453140666609601 0.1298031975615207 0.0 
trait 2 1.209407069573864 0.0 0.0 0.0 0.0 0.0 0.8857245454949451 0.0 
trait 3 0.0 0.0 0.0 0.0 0.17800180791754922 0.0 0.0 0.5940969038032904 
node 1 1 1 1
node 2 1 1 1
node 3 3 1 3
node 4 1 0 2
node 6 1 0 0
node 14 1 0 0
node 39 1 0 0
node 48 1 0 0
node 71 1 0 0
node 89 1 0 0
node 100 1 0 0
node 238 1 0 0
node 290 1 0 0
gene  1 1 4 -1.1326170294506956 0 1.0 -1.1326170294506956 1
gene  2 2 4 -3.854603831803191 0 2.0 -3.854603831803191 1
gene  3 3 4 -14.031527558925973 0 3.0 -14.031527558925973 1
gene  2 2 6 0.6301871360575436 0 6.0 0.6301871360575436 1
gene  2 6 4 3.6922174186957495 0 7.0 3.6922174186957495 1
gene  2 3 6 -1.0247093030329666 0 12.0 -1.0247093030329666 1
gene  3 1 6 -2.483272298049428 0 15.0 -2.483272298049428 1
gene  1 1 14 -0.4820876591572687 0 33.0 -0.4820876591572687 1
gene  1 14 4 19.410030392331773 0 34.0 19.410030392331773 1
gene  2 2 39 0.007742435494331845 0 146.0 0.007742435494331845 1
gene  2 39 4 -2.8226845634182225 0 147.0 -2.8226845634182225 1
gene  3 14 6 0.4792556321969896 0 190.0 0.4792556321969896 1
gene  2 2 48 3.5198590212469725 0 199.0 3.5198590212469725 1
gene  2 48 6 -0.09392287298245527 0 200.0 -0.09392287298245527 1
gene  1 2 14 12.489516767041092 0 210.0 12.489516767041092 1
gene  3 39 48 1.3863093721975113 0 276.0 1.3863093721975113 1
gene  2 2 71 1.9816862286879626 0 323.0 1.9816862286879626 1
gene  2 71 39 -2.811973249030198 0 324.0 -2.811973249030198 1
gene  2 48 89 -4.7076812508506585 0 435.0 -4.7076812508506585 1
gene  2 89 6 -1.8834769196716294 0 436.0 -1.8834769196716294 1
gene  2 71 100 8.023469904242047 0 485.0 8.023469904242047 1
gene  2 100 39 -1.8549950263446595 0 486.0 -1.8549950263446595 1
gene  2 89 238 -0.8844434674529017 0 1069.0 -0.8844434674529017 1
gene  2 238 6 -6.626904719607002 0 1070.0 -6.626904719607002 1
gene  2 2 290 1.2660626233646513 0 1292.0 1.2660626233646513 1
gene  2 290 71 -0.614788608724573 0 1293.0 -0.614788608724573 1
gene  3 71 89 5.915804215864137 0 1545.0 5.915804215864137 1
genomeend 37
/* Organism # 038 Fitness:  0.000 Error:  0.000                      */
genomestart  38
trait 1 0.1 0.0 0.0 0.15696781845815722 0.0 0.8453140666609601 0.1298031975615207 0.0 
trait 2 1.209407069573864 0.0 0.0 0.0 0.0 0.0 0.8857245454949451 0.0 
trait 3 0.0 0.0 0.0 0.0 0.17800180791754922 0.0 0.0 0.5940969038032904 
node 1 1 1 1
node 2 1 1 1
node 3 3 1 3
node 4 1 0 2
node 6 1 0 0
node 14 1 0 0
node 39 2 0 0
node 48 1 0 0
node 71 1 0 0
node 89 1 0 0
node 100 1 0 0
node 238 1 0 0
node 290 1 0 0
gene  1 1 4 -3.3779817010178075 0 1.0 -3.3779817010178075 1
gene  2 2 4 0.8757059717803157 0 2.0 0.8757059717803157 1
gene  3 3 4 -15.545463711149159 0 3.0 -15.545463711149159 1
gene  2 2 6 1.0258459540883031 0 6.0 1.0258459540883031 1
gene  2 6 4 0.5403469835110699 0 7.0 0.5403469835110699 1
gene  2 3 6 0.8140221503363341 0 12.0 0.8140221503363341 1
gene  3 1 6 -1.4880676398091535 0 15.0 -1.4880676398091535 1
gene  1 1 14 2.213136409354755 0 33.0 2.213136409354755 1
gene  1 14 4 17.786764739702033 0 34.0 17.786764739702033 1
gene  2 2 39 -3.189839874873689 0 146.0 -3.189839874873689 1
gene  2 39 4 1.8638309061376022 0 147.0 1.8638309061376022 1
gene  3 14 6 -1.488591379382178 0 190.0 -1.488591379382178 1
gene  2 2 48 6.080020401952197 0 199.0 6.080020401952197 1
gene  2 48 6 -2.3739873137226235 0 200.0 -2.3739873137226235 1
gene  1 2 14 15.297375192224372 0 210.0 15.297375192224372 1
gene  3 39 48 3.0666113855108774 0 276.0 3.0666113855108774 1
gene  2 2 71 1.8738183942998672 0 323.0 1.8738183942998672 1
gene  2 71 39 -3.10247854959406 0 324.0 -3.10247854959406 1
gene  2 48 89 0.5921483248127257 0 435.0 0.5921483248127257 1
gene  2 89 6 -0.30300893887823277 0 436.0 -0.30300893887823277 1
gene  2 71 100 5.6625351482560475 0 485.0 5.6625351482560475 1
gene  2 100 39 -4.9201047129045845 0 486.0 -4.9201047129045845 1
gene  2 89 238 -2.501249555677875 0 1069.0 -2.501249555677875 1
gene  2 238 6 -4.9728611985059885 0 1070.0 -4.9728611985059885 1
gene  2 2 290 2.413986705274353 0 1292.0 2.413986705274353 1
gene  2 290 71 0.7535013592718143 0 1293.0 0.7535013592718143 1
gene  3 71 89 1.3301947677983452 0 1545.0 1.3301947677983452 1
genomeend 38
/* Organism # 039 Fitness:  0.000 Error:  0.000                      */
genomestart  39
trait 1 0.1 0.0 0.0 0.15696781845815722 0.0 0.8453140666609601 0.1298031975615207 0.0 
trait 2 1.209407069573864 0.0 0.0 0.0 0.0 0.0 0.8857245454949451 0.0 
trait 3 0.0 0.0 0.0 0.0 0.17800180791754922 0.0 0.0 0.5940969038032904 
node 1 1 1 1
node 2 1 1 1
node 3 3 1 3
node 4 1 0 2
node 6 1 0 0
node 14 1 0 0
node 39 1 0 0
node 48 1 0 0
node 71 1 0 0
node 89 1 0 0
node 100 1 0 0
node 238 1 0 0
node 290 1 0 0
gene  1 1 4 -2.6669920093804906 0 1.0 -2.6669920093804906 1
gene  2 2 4 -2.988488213626515 0 2.0 -2.988488213626515 1
gene  3 3 4 -17.250043739440972 0 3.0 -17.250043739440972 1
gene  2 2 6 -0.5337629790192211 0 6.0 -0.5337629790192211 1
gene  2 6 4 4.083121593967089 0 7.0 4.083121593967089 1
gene  2 3 6 1.352183803671968 0 12.0 1.352183803671968 1
gene  3 1 6 -1.436468973289775 0 15.0 -1.436468973289775 1
gene  1 1 14 3.641811229045733 0 33.0 3.641811229045733 1
gene  1 14 4 18.616122397473756 0 34.0 18.616122397473756 1
gene  2 2 39 0.7738341660635907 0 146.0 0.7738341660635907 1
gene  2 39 4 -4.001364784729881 0 147.0 -4.001364784729881 1
gene  3 14 6 -1.3421681710894373 0 190.0 -1.3421681710894373 1
gene  2 2 48 1.51115668669626 0 199.0 1.51115668669626 1
gene  2 48 6 -1.7003586814480225 0 200.0 -1.7003586814480225 1
gene  1 2 14 12.422413304677491 0 210.0 12.422413304677491 1
gene  3 39 48 3.035237904616806 0 276.0 3.035237904616806 1
gene  2 2 71 0.9092598891577626 0 323.0 0.9092598891577626 1
gene  2 71 39 -4.770299436327047 0 324.0 -4.770299436327047 1
gene  2 48 89 -6.559190330646309 0 435.0 -6.559190330646309 1
gene  2 89 6 -0.22107239280342883 0 436.0 -0.22107239280342883 1
gene  2 71 100 5.335636435520932 0 485.0 5.335636435520932 1
gene  2 100 39 -4.223861723078755 0 486.0 -4.223861723078755 1
gene  2 89 238 -1.1940910709974135 0 1069.0 -1.1940910709974135 1
gene  2 238 6 -4.466689527905112 0 1070.0 -4.466689527905112 1
gene  2 2 290 0.5192944604285227 0 1292.0 0.5192944604285227 1
gene  2 290 71 0.020738275701172315 0 1293.0 0.020738275701172315 1
gene  3 71 89 3.6390044386192724 0 1545.0 3.6390044386192724 1
genomeend 39
/* Organism # 040 Fitness:  0.000 Error:  0.000                      */
genomestart  40
trait 1 0.1 0.0 0.0 0.15696781845815722 0.0 0.8453140666609601 0.1298031975615207 0.0 
trait 2 1.209407069573864 0.0 0.0 0.0 0.0 0.0 0.8857245454949451 0.0 
trait 3 0.0 0.0 0.0 0.0 0.17800180791754922 0.0 0.0 0.5940969038032904 
node 1 1 1 1
node 2 1 1 1
node 3 3 1 3
node 4 1 0 2
node 6 1 0 0
node 14 1 0 0
node 39 1 0 0
node 48 1 0 0
node 71 1 0 0
node 89 1 0 0
node 100 1 0 0
node 238 1 0 0
node 290 1 0 0
gene  1 1 4 -4.07780995082911 0 1.0 -4.07780995082911 1
gene  2 2 4 -1.9714621646123232 0 2.0 -1.9714621646123232 1
gene  3 3 4 -16.273795358422845 0 3.0 -16.273795358422845 1
gene  2 2 6 0.12569946051512426 0 6.0 0.12569946051512426 1
gene  2 6 4 2.149717134186854 0 7.0 2.149717134186854 1
gene  2 3 6 -2.7831638342793523 0 12.0 -2.7831638342793523 1
gene  3 1 6 -0.1822929975985046 0 15.0 -0.1822929975985046 1
gene  1 1 14 0.9585620297255248 0 33.0 0.9585620297255248 1
gene  1 14 4 15.941712089969135 0 34.0 15.941712089969135 1
gene  2 2 39 -1.7909236600441258 0 146.0 -1.7909236600441258 1
gene  2 39 4 -2.2713469961652253 0 147.0 -2.2713469961652253 1
gene  3 14 6 -1.218103350600701 0 190.0 -1.218103350600701 1
gene  2 2 48 3.0372893835096684 0 199.0 3.0372893835096684 1
gene  2 48 6 0.877127857974997 0 200.0 0.877127857974997 1
gene  1 2 14 11.649994407611496 0 210.0 11.649994407611496 1
gene  3 39 48 3.774505157426965 0 276.0 3.774505157426965 1
gene  2 2 71 -0.8356415517226873 0 323.0 -0.8356415517226873 1
gene  2 71 39 -5.619285155092433 0 324.0 -5.619285155092433 1
gene  2 48 89 -5.613533532441174 0 435.0 -5.613533532441174 1
gene  2 89 6 4.636132015224652 0 436.0 4.636132015224652 1
gene  2 71 100 7.127743110315196 0 485.0 7.127743110315196 1
gene  2 100 39 -0.8851509834772396 0 486.0 -0.8851509834772396 1
gene  2 89 238 1.466218434965476 0 1069.0 1.466218434965476 1
gene  2 238 6 -4.466689527905112 0 1070.0 -4.466689527905112 1
gene  2 2 290 0.3182200193989279 0 1292.0 0.3182200193989279 1
gene  2 290 71 0.7535013592718143 0 1293.0 0.7535013592718143 1
gene  3 71 89 3.6390044386192724 0 1545.0 3.6390044386192724 1
genomeend 40
/*-------------------------------------------------------------------*/
/* Species # 044         : (size= 002) (AvfFit= 3.365) (Age= 68.000)  */
/*-------------------------------------------------------------------*/
/* Organism # 041 Fitness:  0.000 Error:  0.000                      */
genomestart  41
trait 1 0.1 0.0 0.0 0.0 0.0 0.0 0.0 0.0 
trait 2 0.2 0.0 0.0 0.0 0.04788352237316654 0.0 0.0 0.02058122326742594 
trait 3 0.3 0.0 0.0 0.0 0.0 0.0526258174906733 0.0 0.5548488455801439 
node 1 1 1 1
node 2 1 1 1
node 3 1 1 3
node 4 1 0 2
node 10 1 0 0
node 30 1 0 0
node 38 1 0 0
node 315 3 0 0
node 390 1 0 0
gene  3 1 4 -9.043253825977175 0 1.0 -9.043253825977175 1
gene  3 2 4 3.3625418941587886 0 2.0 3.3625418941587886 1
gene  3 3 4 -10.048226781227172 0 3.0 -10.048226781227172 1
gene  1 1 10 1.6979749400602344 0 16.0 1.6979749400602344 1
gene  1 10 4 18.30576530311091 0 17.0 18.30576530311091 1
gene  3 2 10 2.4248640110024944 0 27.0 2.4248640110024944 1
gene  2 3 10 3.105226209912665 0 36.0 3.105226209912665 1
gene  3 1 30 3.8231012351494584 0 88.0 3.8231012351494584 1
gene  2 30 10 -3.101403754540418 0 89.0 -3.101403754540418 0
gene  1 30 4 0.1440828348938441 0 104.0 0.1440828348938441 1
gene  2 2 38 2.4267951438878397 0 140.0 2.4267951438878397 1
gene  2 38 4 3.446236664931455 0 141.0 3.446236664931455 1
gene  3 10 38 -5.466033867679715 0 177.0 -5.466033867679715 1
gene  1 2 30 1.5262519764406521 0 341.0 1.5262519764406521 1
gene  2 1 38 2.1075550954056483 0 379.0 2.1075550954056483 1
gene  3 3 30 -0.6596870867887583 0 1137.0 -0.6596870867887583 1
gene  3 3 38 -0.4647551548845579 0 1168.0 -0.4647551548845579 1
gene  3 30 38 -3.472244799195816 0 1213.0 -3.472244799195816 1
gene  3 30 315 0.47110784463885347 0 1388.0 0.47110784463885347 1
gene  3 315 38 1.3615708309626697 0 1389.0 1.3615708309626697 1
gene  1 2 315 3.3049257313761946 0 1413.0 3.3049257313761946 1
gene  1 1 315 2.0889877906120926 0 1674.0 2.0889877906120926 1
gene  2 30 390 2.314469153174561 0 1700.0 2.314469153174561 1
gene  2 390 10 -2.1057511515333047 0 1701.0 -2.1057511515333047 1
gene  1 3 315 -7.65217554822802 0 1720.0 -7.65217554822802 1
gene  1 390 315 -0.44751850273671956 0 1732.0 -0.44751850273671956 1
genomeend 41
/* Organism # 042 Fitness:  0.000 Error:  0.000                      */
genomestart  42
trait 1 0.1 0.0 0.0 0.0 0.0 0.0 0.0 0.0 
trait 2 0.2 0.0 0.0 0.0 0.04788352237316654 0.0 0.0 0.02058122326742594 
trait 3 0.3 0.0 0.0 0.0 0.0 0.0526258174906733 0.0 0.5548488455801439 
node 1 1 1 1
node 2 1 1 1
node 3 1 1 3
node 4 1 0 2
node 10 1 0 0
node 30 1 0 0
node 38 1 0 0
node 315 3 0 0
node 390 1 0 0
gene  3 1 4 -4.723373534467747 0 1.0 -4.723373534467747 1
gene  3 2 4 3.92413654912169 0 2.0 3.92413654912169 1
gene  3 3 4 -8.104957460617786 0 3.0 -8.104957460617786 1
gene  1 1 10 0.8748825244898992 0 16.0 0.8748825244898992 1
gene  1 10 4 20.933894700953456 0 17.0 20.933894700953456 1
gene  3 2 10 3.468431981563113 0 27.0 3.468431981563113 1
gene  2 3 10 -1.1182219220287755 0 36.0 -1.1182219220287755 1
gene  1 1 30 6.422203124210126 0 88.0 6.422203124210126 1
gene  2 30 10 -3.036562504479931 0 89.0 -3.036562504479931 0
gene  1 30 4 -0.04457472703053034 0 104.0 -0.04457472703053034 1
gene  2 2 38 4.055151713259793 0 140.0 4.055151713259793 1
gene  2 38 4 -0.2593289607139 0 141.0 -0.2593289607139 1
gene  3 10 38 -5.669083778694518 0 177.0 -5.669083778694518 1
gene  1 2 30 0.32136628836677295 0 341.0 0.32136628836677295 1
gene  2 1 38 2.653011186928681 0 379.0 2.653011186928681 1
gene  3 3 30 -0.4396112179852687 0 1137.0 -0.4396112179852687 1
gene  3 3 38 -1.239221797758691 0 1168.0 -1.239221797758691 1
gene  3 30 38 -2.0753037787638076 0 1213.0 -2.0753037787638076 1
gene  3 30 315 1.3205237433124815 0 1388.0 1.3205237433124815 1
gene  3 315 38 -0.20718302985449544 0 1389.0 -0.20718302985449544 1
gene  1 2 315 5.436307860218384 0 1413.0 5.436307860218384 1
gene  1 1 315 1.7259728353711865 0 1674.0 1.7259728353711865 1
gene  2 30 390 1.4510858536860982 0 1700.0 1.4510858536860982 1
gene  2 390 10 -1.4751987515735696 0 1701.0 -1.4751987515735696 1
gene  1 3 315 -7.4137094824747996 0 1720.0 -7.4137094824747996 1
gene  1 390 315 -0.2763504156676194 0 1732.0 -0.2763504156676194 1
genomeend 42
/*-------------------------------------------------------------------*/
/* Species # 045         : (size= 002) (AvfFit= 4.135) (Age= 67.000)  */
/*-------------------------------------------------------------------*/
/* Organism # 043 Fitness:  0.000 Error:  0.000                      */
genomestart  43
trait 1 0.07500000000000001 0.0 0.0 0.2461187479894603 0.19758045389435566 0.0308806690828305 0.23340138045180941 0.12268793506880021 
trait 2 0.0 0.0 0.0 0.9544678038895249 0.17080737277282287 0.0 0.0 0.6425687506077032 
trait 3 0.6485434283379989 0.5531685417094868 0.0 0.011309097304181372 0.3372632687211936 0.3654553789443402 0.6979216542372971 0.0 
node 1 1 1 1
node 2 3 1 1
node 3 1 1 3
node 4 3 0 2
node 6 1 0 0
node 21 2 0 0
node 102 3 0 0
node 106 1 0 0
node 140 1 0 0
node 272 1 0 0
gene  1 1 4 0.5404590375974108 0 1.0 0.5404590375974108 1
gene  1 2 4 0.3613783834552584 0 2.0 0.3613783834552584 0
gene  3 3 4 3.070305229641734 0 3.0 3.070305229641734 1
gene  2 2 6 -12.262387115423934 0 6.0 -12.262387115423934 1
gene  3 6 4 -2.2255031010053634 0 7.0 -2.2255031010053634 1
gene  2 3 6 2.5424829464828127 0 12.0 2.5424829464828127 1
gene  1 1 6 -3.5182409838904354 0 18.0 -3.5182409838904354 1
gene  2 1 21 -6.769759366914155 0 58.0 -6.769759366914155 1
gene  2 21 4 3.290525030380654 0 59.0 3.290525030380654 1
gene  3 2 21 -0.5497187607804284 0 335.0 -0.5497187607804284 1
gene  2 6 21 8.535873980453069 0 425.0 8.535873980453069 1
gene  3 1 102 -2.489634745529808 0 495.0 -2.489634745529808 1
gene  1 102 4 -4.570067647363007 0 496.0 -4.570067647363007 1
gene  2 2 106 -4.7604023368574975 0 511.0 -4.7604023368574975 1
gene  2 106 4 -4.275988851467674 0 512.0 -4.275988851467674 1
gene  3 3 106 0.3462626488481715 0 626.0 0.3462626488481715 1
gene  1 21 140 9.230155471461918 0 659.0 9.230155471461918 1
gene  1 140 4 0.9632005384758253 0 660.0 0.9632005384758253 1
gene  2 1 140 1.2007879594941178 0 811.0 1.2007879594941178 1
gene  3 3 102 -1.1162039697976913 0 824.0 -1.1162039697976913 1
gene  1 21 102 -3.4917322447694996 0 1214.0 -3.4917322447694996 1
gene  1 21 272 14.022510937882153 0 1233.0 14.022510937882153 1
gene  1 272 140 -0.3700269895452686 0 1234.0 -0.3700269895452686 1
gene  2 2 272 3.2821092589951006 0 1252.0 3.2821092589951006 1
gene  3 2 140 -2.2307845494595826 0 1296.0 -2.2307845494595826 1
gene  1 3 21 0.7702348512374866 0 1393.0 0.7702348512374866 1
gene  1 102 140 9.34396305084944 0 1438.0 9.34396305084944 1
gene  2 21 106 0.45875869751262743 0 1452.0 0.45875869751262743 1
genomeend 43
/* Organism # 044 Fitness:  0.000 Error:  0.000                      */
genomestart  44
trait 1 0.07500000000000001 0.0 0.0 0.2461187479894603 0.19758045389435566 0.0308806690828305 0.23340138045180941 0.12268793506880021 
trait 2 0.0 0.0 0.0 0.9544678038895249 0.17080737277282287 0.0 0.0 0.6425687506077032 
trait 3 0.6485434283379989 0.5531685417094868 0.0 0.011309097304181372 0.3372632687211936 0.3654553789443402 0.6979216542372971 0.0 
node 1 1 1 1
node 2 3 1 1
node 3 1 1 3
node 4 3 0 2
node 6 1 0 0
node 21 2 0 0
node 102 3 0 0
node 106 1 0 0
node 140 1 0 0
node 272 1 0 0
gene  1 1 4 -2.9036144133194517 0 1.0 -2.9036144133194517 1
gene  1 2 4 -1.734904285956587 0 2.0 -1.734904285956587 0
gene  3 3 4 2.440971849642329 0 3.0 2.440971849642329 1
gene  2 2 6 -11.177403893499894 0 6.0 -11.177403893499894 1
gene  3 6 4 -5.134321907727058 0 7.0 -5.134321907727058 1
gene  2 3 6 5.101740080715208 0 12.0 5.101740080715208 1
gene  1 1 6 -1.2711730086795074 0 18.0 -1.2711730086795074 1
gene  2 1 21 -3.998785411449293 0 58.0 -3.998785411449293 1
gene  2 21 4 4.73912637329682 0 59.0 4.73912637329682 1
gene  3 2 21 2.0124740908595435 0 335.0 2.0124740908595435 1
gene  2 6 21 6.64253679251734 0 425.0 6.64253679251734 1
gene  3 1 102 -4.776761350437552 0 495.0 -4.776761350437552 1
gene  1 102 4 -5.379843210821901 0 496.0 -5.379843210821901 1
gene  2 2 106 -5.442828523301677 0 511.0 -5.442828523301677 1
gene  2 106 4 -3.467049037069246 0 512.0 -3.467049037069246 1
gene  3 3 106 -1.759624378769758 0 626.0 -1.759624378769758 1
gene  1 21 140 7.965429212284322 0 659.0 7.965429212284322 1
gene  1 140 4 2.232970512926491 0 660.0 2.232970512926491 1
gene  2 1 140 0.585317407192509 0 811.0 0.585317407192509 1
gene  3 3 102 -1.65959143029088 0 824.0 -1.65959143029088 1
gene  1 21 102 -0.6217756011522483 0 1214.0 -0.6217756011522483 1
gene  1 21 272 11.635282158062061 0 1233.0 11.635282158062061 1
gene  1 272 140 -0.9030258165862128 0 1234.0 -0.9030258165862128 1
gene  2 2 272 0.8819692877153003 0 1252.0 0.8819692877153003 1
gene  3 2 140 -0.36584750827877044 0 1296.0 -0.36584750827877044 1
gene  1 3 21 -0.7719998903238048 0 1393.0 -0.7719998903238048 1
gene  1 102 140 9.060247129505711 0 1438.0 9.060247129505711 1
gene  2 21 106 -0.8299511152819827 0 1452.0 -0.8299511152819827 1
genomeend 44
/*-------------------------------------------------------------------*/
/* Species # 046         : (size= 006) (AvfFit= 9.000) (Age= 66.000)  */
/*-------------------------------------------------------------------*/
/* Organism # 045 Fitness:  0.000 Error:  0.000                      */
genomestart  45
trait 1 0.34033297461681733 0.0 0.996336510302797 0.7419543702676612 0.11624857922298248 0.0 0.5957705586156313 0.8223908908842181 
trait 2 0.2 0.0 0.0 0.0 0.0 0.0 0.0 0.0 
trait 3 0.3 0.0 0.0 0.0 0.0 0.9176897320573055 0.4785520153056364 0.2793224093269221 
node 1 2 1 1
node 2 3 1 1
node 3 3 1 3
node 4 2 0 2
node 413 1 0 0
gene  1 1 4 -21.31176434578267 0 1.0 -21.31176434578267 0
gene  1 2 4 23.818732721937 0 2.0 23.818732721937 1
gene  2 3 4 -13.850611902880287 0 3.0 -13.850611902880287 1
gene  1 1 413 1.0 0 1798.0 0.0 1
gene  1 413 4 -21.31176434578267 0 1799.0 0.0 1
genomeend 45
/* Organism # 046 Fitness:  0.000 Error:  0.000                      */
genomestart  46
trait 1 1.293662484867196 0.0 1.8767925500831693 0.7419543702676612 0.11624857922298248 0.0 0.3136610971748811 0.8223908908842181 
trait 2 0.2 0.0 0.0 0.0 0.0 0.0 0.0 0.0 
trait 3 0.3 0.0 0.0 0.0 0.0 0.9176897320573055 0.4785520153056364 0.2793224093269221 
node 1 2 1 1
node 2 3 1 1
node 3 3 1 3
node 4 2 0 2
gene  3 1 4 -23.02358346618019 0 1.0 -23.02358346618019 1
gene  1 2 4 24.40859397265716 0 2.0 24.40859397265716 1
gene  2 3 4 -14.399988671016143 0 3.0 -14.399988671016143 1
genomeend 46
/* Organism # 047 Fitness:  0.000 Error:  0.000                      */
genomestart  47
trait 1 1.293662484867196 0.0 1.8767925500831693 0.7419543702676612 0.11624857922298248 0.0 0.3136610971748811 0.8223908908842181 
trait 2 0.2 0.0 0.0 0.0 0.0 0.0 0.0 0.0 
trait 3 0.3 0.0 0.0 0.0 0.0 0.9176897320573055 0.4785520153056364 0.2793224093269221 
node 1 2 1 1
node 2 3 1 1
node 3 3 1 3
node 4 2 0 2
gene  1 1 4 -20.050704653468273 0 1.0 -20.050704653468273 1
gene  1 2 4 25.505801001587674 0 2.0 25.505801001587674 1
gene  2 3 4 -13.408791395237618 0 3.0 -13.408791395237618 1
genomeend 47
/* Organism # 048 Fitness:  0.000 Error:  0.000                      */
genomestart  48
trait 1 0.34033297461681733 0.0 0.996336510302797 0.7419543702676612 0.11624857922298248 0.0 0.5957705586156313 0.8223908908842181 
trait 2 0.6167314144781519 0.0 0.905922089703866 0.0 0.3029290611593318 0.0 0.0 0.6248368009568279 
trait 3 0.3 0.0 0.0 0.0 0.0 0.9176897320573055 0.4785520153056364 0.2793224093269221 
node 1 2 1 1
node 2 3 1 1
node 3 3 1 3
node 4 2 0 2
gene  1 1 4 -23.784086715514118 0 1.0 -23.784086715514118 1
gene  1 2 4 22.025793131606175 0 2.0 22.025793131606175 1
gene  2 3 4 -12.109025478258726 0 3.0 -12.109025478258726 1
genomeend 48
/* Organism # 049 Fitness:  0.000 Error:  0.000                      */
genomestart  49
trait 1 0.34033297461681733 0.0 0.996336510302797 0.7419543702676612 0.11624857922298248 0.0 0.5957705586156313 0.8223908908842181 
trait 2 0.2 0.0 0.0 0.0 0.0 0.0 0.0 0.0 
trait 3 0.3 0.0 0.0 0.0 0.0 0.9176897320573055 0.4785520153056364 0.2793224093269221 
node 1 2 1 1
node 2 3 1 1
node 3 3 1 3
node 4 2 0 2
gene  1 1 4 -19.605745517394677 0 1.0 -19.605745517394677 1
gene  1 2 4 25.856804059554655 0 2.0 25.856804059554655 1
gene  2 3 4 -12.956621590738493 0 3.0 -12.956621590738493 1
genomeend 49
/* Organism # 050 Fitness:  0.000 Error:  0.000                      */
genomestart  50
trait 1 0.34033297461681733 0.0 0.996336510302797 0.7419543702676612 0.11624857922298248 0.0 0.5957705586156313 0.8223908908842181 
trait 2 0.2 0.0 0.0 0.0 0.0 0.0 0.0 0.0 
trait 3 0.3 0.0 0.0 0.0 0.0 0.9176897320573055 0.4785520153056364 0.2793224093269221 
node 1 2 1 1
node 2 3 1 1
node 3 3 1 3
node 4 2 0 2
gene  1 1 4 -1.995135832332464 0 1.0 -1.995135832332464 1
gene  1 2 4 24.96111210990278 0 2.0 24.96111210990278 1
gene  2 3 4 -15.236545088855266 0 3.0 -15.236545088855266 1
genomeend 50
/*-------------------------------------------------------------------*/
/* Species # 050         : (size= 005) (AvfFit= 6.996) (Age= 58.000)  */
/*-------------------------------------------------------------------*/
/* Organism # 051 Fitness:  0.000 Error:  0.000                      */
genomestart  51
trait 1 0.1 0.0 0.0 0.0 0.0 0.0 0.0 0.0 
trait 2 0.5239046109544871 0.5800647675912513 0.8751974095430065 0.0 0.8835857679765852 0.0 0.0 0.6926023520572051 
trait 3 0.0 0.41150417225124747 0.0 0.0 0.0 0.0 0.0 0.7458458506373703 
node 1 1 1 1
node 2 1 1 1
node 3 1 1 3
node 4 3 0 2
node 6 1 0 0
node 11 1 0 0
node 46 1 0 0
node 49 1 0 0
node 144 1 0 0
node 208 1 0 0
node 343 1 0 0
node 379 1 0 0
gene  2 1 4 0.644090105056653 0 1.0 0.644090105056653 1
gene  3 2 4 6.168419760381709 0 2.0 6.168419760381709 1
gene  1 3 4 -8.65849474160392 0 3.0 -8.65849474160392 1
gene  2 2 6 -4.901250099142311 0 6.0 -4.901250099142311 1
gene  2 6 4 -3.2259663528153655 0 7.0 -3.2259663528153655 1
gene  2 3 6 3.3792396583450004 0 12.0 3.3792396583450004 1
gene  1 1 11 -9.549180741841123 0 23.0 -9.549180741841123 1
gene  1 11 4 0.07959535898014358 0 24.0 0.07959535898014358 1
gene  1 2 11 -1.7176217606819417 0 138.0 -1.7176217606819417 1
gene  3 3 11 -1.937416821003495 0 182.0 -1.937416821003495 1
gene  3 1 46 -1.5248955455567712 0 188.0 -1.5248955455567712 1
gene  1 46 4 -7.173763583581655 0 189.0 -7.173763583581655 1
